1000 300
data 0.11379038 0.0118082715 -0.0065254644 0.10261175 0.00069587847 0.0912978 -0.117188424 -0.0032151195 -0.120455 -0.08410952 -0.045947228 -0.07946065 -0.13671567 0.09583394 0.06453893 0.11131947 -0.12216936 0.026155908 -0.12061244 0.05022323 0.04511226 -0.175171 -0.071069896 0.26083443 0.14763406 0.24051075 0.02077367 -0.09394959 -0.10764156 0.11552744 0.2952051 0.053435445 -0.27407503 -0.24114873 0.11766014 0.022263404 -0.020510238 -0.061207984 0.09927753 0.24911055 0.14529456 0.052334767 -0.003458983 -0.103764966 -0.1688071 0.1735179 -0.35332152 -0.2045976 -0.14872885 0.013918786 0.013115657 0.09963904 0.17028823 0.10872882 0.14239441 -0.013423145 0.057143755 0.049463574 -0.059853293 -0.061693236 -0.0027118083 -0.10672559 -0.032787047 -0.09946178 0.0029437025 0.03125521 -0.215121 -0.018016087 -0.06254853 0.0730354 -0.03091684 -0.016503684 0.21586041 -0.14422354 -0.27290756 0.08592826 -0.10374014 -0.0905952 -0.10264772 -0.057043802 -0.0755164 0.10489314 -0.107582524 0.07741918 -0.1899027 0.051911905 -0.23969269 -0.0066637592 0.03825707 0.18273456 -0.0013403917 0.07447132 -0.3385489 -0.056872677 0.054806624 0.2118488 -0.17858905 -0.13683827 -0.32592267 -0.15852752 0.06496296 0.05938888 -0.025956877 -0.13599223 0.08322502 -0.101780094 -0.008831119 0.0039175553 -0.058201678 0.1939762 -0.086350724 -0.006321918 0.08685152 0.029121367 -0.1354589 -0.166832 -0.029427728 -0.026628712 -0.053110596 -0.09088306 -0.03395471 -0.08146169 -0.008531896 -0.16003984 0.21549985 -0.050351463 -0.17129764 0.120090164 -0.1011787 0.18971631 -0.072930194 0.065603934 -0.0210048 0.11477702 -0.021624777 0.0064705857 -0.1602451 -0.069816194 -0.05147786 -0.14593531 0.0952868 0.053756837 -0.19970937 -0.0036942123 0.21643192 -0.01893483 -0.060672905 0.032934073 0.12499762 0.29237762 0.082730584 0.29160428 0.05123781 0.10899989 0.21274365 -0.0742206 0.02460887 -0.111823894 -0.19103052 -0.022427065 -0.09988808 -0.092662945 0.12627508 -0.03822167 0.11939733 -0.06595191 0.025907265 -0.09331947 0.06624956 -0.09543235 -0.03241801 0.025945256 -0.09437494 0.06108233 -0.19852719 -0.17185108 0.09185915 -0.2494135 0.12860055 -0.03815174 -0.03340254 -0.37321168 -0.19935587 -0.21581239 0.07772244 0.04970016 0.008669335 0.23096287 -0.182239 -0.08677683 -0.23695983 0.028144196 -0.21528226 0.16518785 -0.077456504 0.27188814 0.12989433 -0.16380966 0.26502624 -0.17270263 -0.016505059 -0.14671133 -0.046381555 0.0052290773 -0.01698923 0.033244602 0.05804796 0.17442974 -0.11541208 -0.077271 0.08570414 -0.089785725 -0.04225002 -0.16659296 0.2780712 -0.22051878 0.24209633 -0.059460152 0.11502436 -0.2312507 0.15553285 -0.08881715 0.094652236 -0.10494466 0.23990881 0.072852716 -0.10821119 0.11698248 -0.25810868 0.007457078 0.18390276 0.11814309 0.030266182 0.06560608 -0.048836164 0.0025079767 -0.328853 -0.2891997 0.13169765 -0.030039968 -0.21602747 -0.09066427 -0.22007838 0.12765801 -0.012084991 -0.08599469 -0.08156437 -0.36930057 0.18471405 0.020563666 -0.1080004 0.25818914 -0.11040289 -0.13232598 0.061081793 -0.22586331 0.066780366 -0.021019373 0.22985727 0.13721322 -0.15346451 -0.03290889 0.046824396 0.11036947 -0.032539655 -0.15530674 0.32144412 -0.027915465 0.017964492 0.23263101 -0.33739555 0.106616996 0.02851519 -0.0454671 -0.10222356 -0.08466196 -0.20094657 0.15606946 0.11131292 -0.12281402 0.12315818 0.12819618 -0.038770337 0.10587174 -0.044970684 -0.17347829 -0.013051566 -0.058968846 0.04768682 -0.32337806 -0.067999355 -0.02331632 0.027879449 -0.1223001 -0.39142832 -0.23154569 0.00042040905 0.10192402 -0.11300106 0.11899554
artifici 0.033772334 -0.050401952 0.023413332 0.0039849663 0.005358713 0.08737548 -0.08801729 0.08471905 0.0273475 -0.1975513 0.14695948 0.08637182 -0.028709354 -0.06316187 0.071922004 -0.05293958 -0.0375706 0.095476404 0.053501 0.20227121 0.116686866 -0.115223445 -0.068759434 -0.013870277 0.070475936 0.1283369 0.14914632 -0.17837682 0.051986832 0.1129165 -0.12159468 -0.06858667 -0.030315151 0.07173135 0.04556661 -0.12255317 -0.013825808 0.026892837 -0.011951159 0.13280603 0.09199815 -0.088093705 0.04638896 -0.072321095 0.033700053 -0.0014437037 -0.054735728 -0.25261548 -0.069531135 0.06079221 -0.064991936 0.10329877 0.09687974 -0.15521389 -0.033445675 -0.23802109 -0.03323585 0.0479809 -0.066762276 -0.24579494 0.012983885 -0.113815084 -0.04294644 -0.071903005 0.012010197 0.17127496 0.029035784 0.108321704 -0.018525515 0.16041178 -0.01650978 0.10859128 0.051493976 -0.08925082 -0.20885849 -0.02212433 0.09020335 0.10726566 -0.06947928 -0.15391117 -0.066814534 -0.042518035 0.022809008 0.06330446 -0.10640647 0.07711559 -0.1983268 0.17621844 -0.020589467 -0.011177232 0.1731606 0.016640102 -0.11322621 0.09483821 -0.215688 0.05914241 -0.24437357 -0.09853839 -0.13526827 -0.18408248 0.11286134 0.044932332 0.005977352 -0.046583906 0.026622955 0.029392332 0.05944752 -0.1326706 0.026366862 0.043219253 0.0778749 -0.042908374 0.0094502065 -0.051259883 -0.0007894665 0.095950894 -0.15320694 -0.03195136 0.036081463 0.00827678 -0.13693188 -0.054258548 -0.09867426 0.017367505 0.2894742 -0.062231496 -0.06186335 -0.08075384 -0.1311786 0.10558954 -0.09372027 -0.10475943 -0.107387505 0.013831056 -0.15407553 0.02245472 -0.070529915 -0.132789 -0.058017287 -0.100066714 -0.016898753 0.04934124 -0.06347653 0.25086972 0.08399687 -0.064137176 -0.09580704 -0.039085556 -0.18978779 0.08088076 0.0898189 0.15003012 -0.055689268 -0.030574845 0.073724926 -0.18082894 0.06695983 0.014052878 -0.1554574 -0.093125276 -0.115565956 0.09265252 -0.06427498 -0.094859324 -0.18113227 -0.028870663 0.03628399 0.00072015135 0.07488813 -0.061123766 0.007036053 -0.030173331 8.880765e-05 0.061495274 -0.060705017 -0.078632414 -0.2429878 0.053581387 0.20474616 0.03141101 -0.020437215 -0.15296204 0.051813446 -0.020042058 0.09908929 0.04601839 -0.058876254 0.08136973 -0.08551625 -0.23551556 -0.17429858 -0.115755804 -0.2855166 0.05921107 -0.0219257 0.011682116 0.016339583 0.11460112 0.018487034 -0.16026264 -0.057447195 -0.07137164 0.0001501776 0.10407331 0.039386947 -0.15328512 -0.04627257 0.12287706 -0.11300166 0.17058904 0.14419481 0.07940065 0.04338098 -0.07868802 0.111362755 -0.11777146 -0.112137474 -0.011091024 0.022002397 -0.11839777 0.24199444 -0.054715198 0.09843345 -0.03162944 0.16212198 -0.08484684 -0.046054684 0.16189809 -0.17039995 -0.060964692 0.08776757 -0.033052575 -0.013859617 0.057138603 -0.09687257 -0.08380296 -0.037862528 -0.012299903 -0.0052998634 -0.010226123 -0.114639655 -0.09644123 0.03227015 0.033379864 0.051662445 -0.055361073 -0.16715553 -0.17173025 -0.038510293 0.029323947 -0.028122462 0.08381155 -0.015720468 -0.31055853 0.10281339 -0.110055625 -0.09672264 -0.19679858 0.07535018 -0.008400667 0.11902364 0.057328556 0.19529058 -0.14440672 -0.02016529 -0.027655331 0.10794459 0.08646198 -0.01591795 0.008622258 -0.1361021 0.17267439 0.050351433 -0.106632 -0.084110744 0.01669039 -0.06289372 0.04291797 -0.108092025 -0.09151166 0.0810652 0.13092478 -0.04258403 0.034695975 0.09356332 -0.054539435 -0.010562681 0.16633753 0.075585574 -0.06760299 -0.06465027 0.10765931 0.0062271776 -0.14532292 -0.26046106 -0.016316699 0.02005301 -0.003570906 0.045530237 -0.13057315
inteligencia -0.030609349 0.010406024 -0.006137156 -0.013782663 -0.06049122 0.036724817 -0.087820716 0.15532814 -0.013889931 -0.19498803 0.16163898 0.070667185 0.0017223175 -0.08590261 0.012054066 -0.05630095 -0.073715515 0.031059308 0.050839353 0.24438074 0.118230574 -0.13334541 -0.07502062 -0.07374788 0.034938067 0.14033726 0.16483666 -0.1730397 0.02615788 0.11219092 -0.097133145 -0.059084218 0.030847209 0.09367077 0.0164516 -0.08503536 -0.062853165 0.038697705 -0.047072344 0.052326586 0.108315796 -0.07324147 0.026395142 -0.15728329 -0.016479641 0.07393805 -0.10507299 -0.2517216 -0.007770077 0.03613719 -0.038597282 0.07903006 0.05426878 -0.1677602 0.016796868 -0.2206738 0.034012634 -0.022276038 -0.03700327 -0.23779856 0.045501284 -0.13792324 -0.054247126 -0.071556434 0.07715454 0.22042474 -0.007864993 0.12758301 -0.09717373 0.17041753 0.06466369 0.075378716 0.010343216 -0.013719406 -0.21579927 -0.06577921 0.08753518 0.1371373 -0.012295375 -0.14024554 -0.057552703 -0.11895865 0.06130564 0.0002931037 -0.152926 0.06322293 -0.14699332 0.15563802 -0.012158193 0.0425564 0.15401092 -0.005406795 -0.09726143 0.14068662 -0.21350864 0.031184664 -0.21075858 -0.07568859 -0.15905544 -0.11860059 0.049322184 0.027600449 0.016429244 0.0026432166 0.0077609825 0.019677179 0.08131444 -0.14821504 -0.020177213 0.08203007 0.13937494 -0.040248595 -0.0022066252 -0.012235965 0.041832738 0.074916966 -0.14358899 -0.07167952 -0.024363775 -0.025067713 -0.19255903 -0.07569876 -0.040443987 -0.0036587948 0.2382114 -0.08450705 -0.08342928 -0.04218927 -0.0861103 0.07747072 -0.106129766 -0.14678633 -0.09210519 -0.036502413 -0.11886688 0.01996423 0.018731931 -0.119980335 -0.044060048 -0.07537214 0.0694177 0.10639255 -0.033098493 0.34183982 0.057958025 -0.004237131 -0.10682146 -0.11175415 -0.24746175 0.032975737 0.06321206 0.15228096 -0.0858333 -0.029695082 0.06447153 -0.21450284 0.035899118 0.05616561 -0.19414747 -0.083775796 -0.17458342 0.09747736 -0.16329548 -0.06381367 -0.20037562 0.016836729 -0.01131348 -0.022934869 0.09204981 -0.067143686 0.017307304 -0.12949814 0.03767559 0.04123715 -0.009267381 -0.0658647 -0.27690658 0.03416433 0.2351718 0.054374557 -0.09976359 -0.08539766 0.0024603852 -0.03257689 0.13678817 -0.016497659 0.0073227463 0.04638624 -0.124533385 -0.17367883 -0.07660439 -0.07006995 -0.27645177 -0.017715612 -0.06432751 -0.040041294 -0.009969006 0.15205492 -0.040724903 -0.12131536 -0.08462884 -0.057270188 -0.020305352 0.09402883 0.062134262 -0.15734994 -0.049134944 0.06513364 -0.077576704 0.17232293 0.16377431 0.095918894 0.066948615 -0.10216841 0.08417819 -0.093727335 -0.15678675 0.0033175468 -0.003307873 -0.07376426 0.15188318 -0.034698553 0.07593365 0.05016304 0.16976404 -0.11295047 -0.04650078 0.22882846 -0.20205677 -0.024867192 0.10658621 -0.06240198 -0.014133105 0.1187688 -0.036588795 -0.049318556 0.0056034676 0.023690214 -0.008313854 0.0001624891 -0.11008326 -0.08424241 0.06461485 -0.0063125966 0.09102478 -0.047648996 -0.15906346 -0.12333665 -0.037030753 -0.009544492 -0.069386594 0.06942442 0.045937154 -0.30885237 0.09408155 -0.12092434 -0.09613116 -0.20974785 -0.008394654 -0.09452193 0.16144605 0.09693735 0.1430034 -0.099626884 -0.06123089 0.02583641 0.071856275 0.05422594 -0.09929282 0.018583 -0.10007757 0.10565625 -0.053839933 -0.119634286 -0.10331428 0.056999214 -0.122859284 0.02134359 -0.12187533 -0.12972507 0.004066879 0.12286928 0.021626793 0.0063477587 -0.02557226 -0.08056683 0.0034735121 0.09249267 0.06858447 0.0068723303 -0.040683527 0.09423152 0.036944948 -0.19789255 -0.30267686 -0.06800414 -0.03345131 -0.060674798 0.08367668 -0.1465297
pix 0.09515719 -0.08358521 -0.06961853 -0.06352361 0.013915126 0.01763786 -0.10480007 0.042077746 -0.010448547 -0.0745143 0.03568056 0.13927214 0.2152108 -0.0013064557 0.10138128 -0.08617836 0.07889104 0.11233928 -0.06408635 0.09011528 0.05296361 -0.0029571776 0.06888736 0.010562046 -0.12249682 0.10116565 0.11358531 -0.1799662 -0.105663255 0.1501675 -0.1731629 -0.10535182 0.048987612 0.12361635 -0.10129915 0.08023035 0.04174502 0.06358267 0.03988646 0.13660465 0.057991568 -0.11134597 0.22201414 -0.18915632 -0.026327673 0.041864526 -0.10033177 -0.24363957 0.057141274 -0.03118139 0.0641194 0.08661657 0.13300729 -0.19835344 0.10228058 -0.21827696 0.068354525 0.116100274 0.054526895 -0.17388655 0.06569071 -0.19443575 -0.07957483 -0.06615032 0.16862603 0.06293361 0.062749766 0.11464821 0.0015707159 0.030529408 0.17658933 -0.12284692 0.05812392 0.066901244 -0.09930385 -0.011285727 0.10019143 0.0026981009 0.079500005 -0.08323582 -0.039699674 -0.11307648 0.0055171596 -0.1082856 -0.16215542 -0.021384409 -0.17911494 0.09300186 0.1298337 0.09443336 0.055095594 -0.018370116 -0.050575897 -0.0103441365 -0.05575752 0.1690449 -0.058519736 -0.08790479 -0.18199757 -0.07237662 0.06917442 0.07557209 -0.096662804 0.1379655 -0.026070803 -0.04560446 0.03748584 -0.12558039 0.0023683347 0.0562716 0.15291512 0.053684216 -0.07837494 -0.027112303 -0.011144538 0.004498449 -0.07830884 -0.03968803 -0.19057466 -0.07832012 -0.10307277 0.052033167 -0.08106295 -0.002041605 0.2166327 0.027218757 -0.042874087 0.042577222 -0.010917594 0.18928687 -0.03439191 -0.14653714 0.10769228 -0.0027152013 -0.07884968 0.12883815 0.045396425 -0.10612872 0.05714506 -0.07278337 0.102841645 -0.010176861 0.08806445 0.34650764 -0.03967998 0.07316308 -0.11303968 -0.15830223 -0.19828178 0.04071524 0.17850614 0.01281129 -0.14569198 -0.081715085 0.10733179 -0.21773909 0.029528674 0.1520032 -0.099746235 0.1693308 -0.09571334 0.05707026 -0.111017905 0.054949082 -0.14421298 0.12523538 -0.14406446 0.073999666 0.12022612 0.006614222 -0.108351 -0.10945902 0.1658297 0.09074173 0.04884876 -0.10116085 -0.09321409 -0.057197765 0.11394872 0.11219967 -0.10898806 0.025586393 -0.16384573 -0.1575957 0.2542067 -0.14935057 0.11575331 -0.061813697 -0.1374391 -0.12380375 -0.020793706 -0.074679 -0.16098481 -0.018527403 -0.15134309 -0.06460552 -0.07427927 0.013779619 0.0082533555 0.042326454 -0.10253851 -0.07667195 0.011176277 0.1429497 0.081296526 -0.019672714 0.033403635 0.18356997 -0.11566803 0.13139486 0.17305833 0.0024743353 0.085151315 -0.27969018 0.1252102 -0.12633666 -0.10260534 -0.03833562 0.10933843 0.036879648 0.25512084 -0.086195424 0.08931004 0.21973816 0.13022411 0.033947483 -0.059167452 0.121819995 -0.117493965 -0.064719625 0.08656645 -0.054968446 -0.0041795857 0.04665872 -0.13194184 -0.035424333 -0.048023507 -0.07420197 0.15932047 0.050008543 -0.10988363 0.038657527 0.121997 0.04603339 0.115789935 0.080733925 -0.11127614 -0.09282279 0.08286529 -0.03462906 -0.018138131 0.06513536 0.0020328315 -0.19864742 0.2288724 -0.06271115 -0.05812646 -0.16466866 0.008165544 0.07922522 0.16052768 0.11960295 0.19291382 -0.084429234 -0.039016187 0.06580305 0.07871118 0.12575027 0.00040023486 -0.012081562 -0.07875909 0.07313546 0.02121095 -0.117275216 -0.16098857 -0.088695824 -0.030279534 0.03485568 -0.10614141 -0.035194196 -0.14129655 0.10864992 0.027574705 -0.047359295 0.099895276 -0.03531806 0.012996234 0.18155742 -0.10441153 0.012336975 0.048583996 -0.028791165 0.12394568 -0.20333508 -0.20135348 0.117730185 -0.036239732 -0.06549371 -0.018333452 -0.06257112
analyt 0.100397594 -0.011813706 -0.004452975 0.0976915 -0.02051925 0.08355708 -0.086384036 0.027090121 -0.0690788 -0.09071352 -0.030355554 -0.077309586 -0.12965426 0.0653439 0.059219204 0.07305022 -0.117007725 0.022650167 -0.06650281 0.09008198 0.07021163 -0.16026402 -0.031215077 0.18464568 0.12342164 0.21076779 0.015033275 -0.096527085 -0.09056685 0.13001941 0.2009691 0.05409021 -0.20609792 -0.1682572 0.09651912 0.0014279883 -0.03566887 -0.05066683 0.0891637 0.22313368 0.1315489 0.03970531 -0.011992452 -0.078691736 -0.15461226 0.1459583 -0.28716817 -0.19881961 -0.12194913 0.022965502 0.005995216 0.0745257 0.13130958 0.022808816 0.097244255 -0.026339235 0.057550143 0.033042498 -0.0537998 -0.11439497 0.017115403 -0.106842935 -0.023986135 -0.06247448 -0.021606175 0.040546592 -0.18711889 0.018310027 -0.056864116 0.09798478 -0.04113391 -0.013334019 0.18535179 -0.1400043 -0.24484229 0.067683294 -0.06968966 -0.03408185 -0.10074905 -0.07914886 -0.07549621 0.03691608 -0.09051852 0.07989118 -0.18228061 0.03302936 -0.20825247 0.009292698 0.009413603 0.13558751 0.032932788 0.07368448 -0.27101856 -0.0501554 0.000266882 0.17344764 -0.18789856 -0.12498686 -0.27076128 -0.14437173 0.04550205 0.04820189 -0.026542485 -0.1099744 0.058047086 -0.0747931 0.0021745742 -0.030801782 -0.036212917 0.15384726 -0.06592538 -0.004426526 0.071004525 0.014204961 -0.0779027 -0.111435845 -0.05805183 -0.027453199 -0.039230086 -0.060244422 -0.049665265 -0.062287077 -0.0003411266 -0.16770475 0.21732667 -0.057104528 -0.12145631 0.06543923 -0.074019216 0.15239297 -0.05487734 0.04264556 -0.041192997 0.069190316 -0.055412706 0.009562232 -0.1328588 -0.08964899 -0.07102036 -0.0975737 0.06346944 0.06417161 -0.16957551 0.053686213 0.19394416 -0.052481502 -0.04390646 0.032748643 0.0417674 0.2715699 0.0658182 0.27362445 0.039715067 0.058003042 0.1788641 -0.10457623 0.041728072 -0.08945481 -0.14690852 -0.037185412 -0.11185019 -0.062556624 0.08115242 -0.016732777 0.053360377 -0.06251091 0.035306536 -0.07185437 0.06590546 -0.071341135 -0.019577308 0.0045859595 -0.08248851 0.032208495 -0.15877037 -0.13337651 0.0120204985 -0.18235384 0.13564253 -0.028429078 -0.065132245 -0.30219886 -0.13630588 -0.16597427 0.105073266 0.06313642 0.008294547 0.18143569 -0.16414613 -0.12439537 -0.2185948 -0.00022932694 -0.22441901 0.13554701 -0.058889475 0.20408969 0.085648134 -0.093347944 0.19060741 -0.15951324 -0.026310228 -0.14028946 -0.04845558 0.014570558 -0.00888935 0.00650896 0.023956917 0.1552418 -0.119992524 -0.027746158 0.111962475 -0.047657877 -0.04819212 -0.14071943 0.25573793 -0.19164962 0.16010313 -0.044633772 0.09604834 -0.20986815 0.15571801 -0.09501879 0.08296174 -0.12149067 0.22254808 0.031320717 -0.074987024 0.11893147 -0.22766389 0.029863494 0.15604204 0.09832654 0.033106007 0.075159065 -0.05543835 -0.023695441 -0.2533829 -0.23643039 0.08742466 -0.031336777 -0.1795951 -0.052460417 -0.17927426 0.07908136 0.008465818 -0.07985682 -0.08136954 -0.30726168 0.1564811 0.025356734 -0.0826119 0.2312425 -0.08339731 -0.15815659 0.045371596 -0.19896765 0.02290949 -0.0220591 0.17217019 0.08733625 -0.10467485 -0.014125869 0.055708714 0.09364758 -0.018842485 -0.1316253 0.25067586 -0.012312934 0.00063146726 0.19181879 -0.2859288 0.07364158 0.02527023 -0.043540847 -0.08516301 -0.06368267 -0.18139899 0.09764163 0.07029531 -0.104642615 0.10918923 0.12156517 -0.035031207 0.08518343 -0.019871684 -0.14771071 -0.025599733 -0.03209921 0.033835024 -0.27109355 -0.05208362 -0.006974084 0.028640069 -0.10345085 -0.3708468 -0.19489405 -0.018154886 0.096327774 -0.07817416 0.08940172
learn 0.1557976 -0.13942662 0.06294423 0.13297164 0.06141776 -0.009977895 -0.028464882 -0.042128183 0.03852456 -0.11440927 -0.18659464 -0.14572439 -0.23149098 0.060922135 -0.0016086526 0.01559418 -0.13189432 0.015704677 0.005703299 0.026934912 0.21373619 -0.09045006 -0.059353687 0.20901494 0.09002507 0.23260784 -0.15403177 -0.21888071 -0.070496894 0.14718994 0.0943826 0.17236532 -0.23506626 -0.16754128 0.08217706 0.0021904265 -0.009045225 -0.04681412 0.08505161 0.23214857 0.07583647 0.042131864 -0.09501421 -0.054105543 -0.057850074 0.17267765 -0.21947053 -0.1320941 -0.10898325 -0.080209516 -0.0038781886 0.063454956 0.09962042 -0.062691525 0.079203896 -0.014096248 0.1626127 -0.07628496 0.058416996 -0.17241016 -0.045832153 -0.21821883 -0.15929596 -0.10303386 -0.13682254 0.079133384 -0.17909344 -0.01166724 0.023505196 0.16515651 -0.15420568 -0.014453585 0.27456045 -0.093597524 -0.21791221 0.03440314 -0.042535532 -0.037553564 -0.10375054 -0.15624252 -0.09419291 0.056693025 -0.06302777 0.091629915 -0.28384545 0.0056771566 -0.12820128 -0.011435484 -0.062412735 0.07733483 0.046383113 -0.04565094 -0.25635916 0.036903203 -0.08927036 0.23028076 -0.21205401 -0.23956858 -0.23706606 -0.11902947 0.05110079 -0.0027255286 -0.084977984 -0.22767185 0.040061295 -0.09754954 0.12010107 -0.07005664 0.12110349 0.13147777 -0.0072005265 -0.07754831 0.107641205 -0.04498403 -0.18586521 -0.049456093 -0.15257326 0.015708324 -0.049121857 -0.11485989 -0.09552792 0.023369944 -0.0668845 -0.18732545 0.3148469 -0.10412617 -0.11558641 0.09872045 -0.07696251 0.25520626 -0.0063729426 0.17184356 3.5486228e-05 0.061427608 -0.07980002 0.027043765 -0.2394647 -0.1999686 -0.094163224 0.019953586 -0.04541648 0.16526349 -0.1910798 -0.045055114 0.20560256 -0.09419993 -0.099638775 0.12687498 -0.05166746 0.32019472 0.15179686 0.17245731 0.1243991 -0.024159912 0.24059847 -0.035726596 0.069642514 -0.16558337 -0.1909579 -0.10364944 -0.23529598 0.015929984 0.062327437 -0.0134771485 -0.20378114 -0.08654687 0.0084289685 0.052457895 0.110723875 -0.026387865 0.0627047 0.06518689 -0.12665737 0.13016 -0.09444383 -0.11719074 -0.09237887 -0.2217672 0.17510907 0.09677705 -0.14309259 -0.35397983 -0.14305635 -0.16792746 0.19839182 0.08266406 0.07929985 0.07440841 -0.15262325 -0.048547406 -0.29565388 -0.103325665 -0.2657363 0.1893155 0.040617846 0.10124031 0.11325287 0.05814933 0.08113484 -0.2534099 -0.11947749 -0.08569871 0.008473753 0.02057723 -0.047967147 -0.09966638 -0.14186363 0.14803533 -0.20836383 -0.056333214 0.23187253 -0.031340335 -0.16245063 -0.0366721 0.267621 -0.1632502 0.18563657 0.00835434 0.16997758 -0.27170014 0.014763767 -0.057989087 -0.037505567 -0.0805551 0.18618634 0.019674571 -0.14609098 0.23200737 -0.28048244 0.0029619613 0.16764402 0.036910962 0.11681142 0.16177434 -0.08324983 -0.06237432 -0.29771134 -0.12929791 0.15042563 -0.048353318 -0.15258665 -0.08487024 -0.21171944 0.010610918 0.030100614 -0.13864225 -0.17225781 -0.3196165 0.07084034 -0.0062204497 -0.13893826 0.2579732 -0.046461727 -0.14246845 -0.064313516 -0.14293846 -0.069081835 0.053510085 0.053014923 0.038312662 -0.16202058 -0.0033689132 0.03928243 0.16057655 -0.007737537 -0.23432288 0.29450512 0.010921629 -0.06213281 0.16347015 -0.30757472 -0.026807925 0.08655305 -0.11549822 -0.14455043 -0.10175492 -0.19840014 -0.026003856 0.066582225 -0.048368227 0.13896903 0.14659263 -0.09534616 0.052975055 0.01789291 -0.20587786 -0.0099256085 -0.017699283 -0.0022199075 -0.15637161 -0.13164127 -0.07415943 0.10697319 -0.13550013 -0.48368222 -0.17775272 -0.06962327 0.18403341 -0.021569185 0.18847778
dado 0.023989588 -0.05846798 -0.00034860737 0.015748048 -0.025011808 0.05479073 -0.08206344 0.046103366 0.022450794 -0.11149667 0.023090532 0.04206497 0.13095279 -0.02479346 0.075359106 -0.09257334 -0.027905708 0.052278075 0.02607098 0.11191147 0.070031166 -0.017239442 0.04111464 -0.041937612 -0.08011111 0.13062647 0.08760837 -0.117961116 -0.076766886 0.14741391 -0.108537376 -0.07048618 0.018406574 0.1035689 -0.06509423 0.017817905 0.014786163 0.06289688 0.028694864 0.10938541 0.057419647 -0.06622907 0.12410954 -0.16358541 -0.019288667 0.074783266 -0.10957377 -0.21675007 0.04213355 0.0051276865 0.028477876 0.046638075 0.088980004 -0.1603702 0.0224398 -0.17682768 0.029938113 0.06305355 0.015648613 -0.15542704 0.09942239 -0.12947854 -0.12439351 -0.023617411 0.10964939 0.13233232 0.021123054 0.09366077 -0.037100963 0.059411827 0.093614765 -0.06650145 0.097207084 -0.012516862 -0.13415787 0.021241842 0.07708053 -0.001962254 0.022618238 -0.13320115 -0.054884512 -0.14891453 -0.01111185 -0.04554794 -0.12899159 -0.0607708 -0.1806072 0.13101752 0.0509658 0.049930498 0.053461697 0.036080703 -0.03439999 0.0031601954 -0.14752914 0.08388207 -0.13320574 -0.101029806 -0.102944165 -0.07974042 0.04603858 0.08065181 -0.09890026 0.063159496 0.003977586 -0.008590438 0.06467773 -0.12720661 0.005582479 0.021108253 0.11639487 0.0078186635 -0.0373432 -0.0072196894 0.030648008 -0.0005404946 -0.12244586 -0.059622742 -0.102479875 -0.017659506 -0.12307841 -0.03241082 -0.08338357 -0.055249304 0.16281973 0.03739997 -0.01729873 0.017778017 -0.036865495 0.075072624 -0.025165865 -0.13057634 0.012259497 -0.013329187 -0.10578502 0.07093466 0.012211375 -0.078432776 0.0027130542 -0.047210135 0.10013547 0.023150101 0.027428662 0.30487707 -0.010889689 0.0091165025 -0.06720832 -0.10998564 -0.2138186 0.09587741 0.12797202 0.00059167773 -0.057560533 -0.06339103 0.047849186 -0.18658161 0.029745735 0.101851545 -0.10457527 0.057651814 -0.064067945 0.07767254 -0.08703532 0.026428252 -0.112124056 0.0143509675 -0.06677322 0.023889381 0.07960589 -0.043222133 -0.0063744974 -0.03757912 0.095110826 -0.005401057 -0.05075124 -0.07329667 -0.18186557 -0.0028824802 0.10575735 0.094175644 -0.10359793 -0.03074842 -0.12366751 -0.087271675 0.15677722 -0.044851895 0.066533364 -0.04557475 -0.12342644 -0.19568546 -0.051424205 -0.084940046 -0.18523003 -0.022449935 -0.043352216 -0.04723859 -0.023426024 0.016029133 -0.008315539 -0.006969291 -0.095933765 -0.09425863 -0.019293102 0.120448634 0.09491247 -0.043977283 -0.012351016 0.10475483 -0.17652197 0.15968724 0.14775375 -0.01196059 0.02938726 -0.19488385 0.10873895 -0.12302449 -0.14177267 0.0005075984 0.004976178 -0.059956715 0.12922736 -0.06760314 0.049206883 0.08201263 0.12812518 -0.0059320764 -0.01744212 0.103646025 -0.18609908 -0.0351466 0.060176 -0.039442286 0.020662405 0.043210875 -0.099197894 -0.07086571 -0.0284218 -0.023806065 0.078301154 0.07105309 -0.06379034 0.016794264 0.10045172 0.04018394 0.14559765 0.008567666 -0.15092736 -0.10444327 0.048562888 0.03964838 -0.0722601 0.05243283 -0.006040013 -0.20806748 0.15001577 -0.060800098 -0.08958449 -0.120054685 0.04190059 0.035776824 0.10925518 0.08427291 0.14787592 -0.060230933 -0.013178961 0.07524366 0.034025583 0.07369944 -0.056398932 0.035148423 -0.095689416 0.050008107 -0.00485164 -0.108405516 -0.11179339 -0.038540035 -0.08756694 -0.02171244 -0.079387926 -0.052626632 -0.07755819 0.055765137 -0.033531718 -0.0025013024 0.03439297 -0.06381479 -0.0027503988 0.12693046 -0.034169253 -0.033312093 0.027657013 -0.0020452035 0.053189002 -0.15602867 -0.23717318 0.047610924 -0.018035192 0.0003470788 0.031856697 -0.041443955
machin 0.12748942 -0.14047405 0.02042515 0.098416254 0.079980984 0.036993288 -0.058576833 -0.05447319 0.040593833 -0.13372587 -0.15691386 -0.13216531 -0.2677541 0.030304823 0.0069979476 0.05984323 -0.124735445 0.011795444 -0.030772328 0.02857644 0.2002125 -0.12230481 -0.09267949 0.18558015 0.13245529 0.220934 -0.12638496 -0.19845264 -0.09289548 0.10261042 0.15109362 0.1475388 -0.18989308 -0.1711255 0.098411135 0.009191356 -0.019776287 -0.010891782 0.10473052 0.22919235 0.051088728 0.023745729 -0.07834394 -0.06810409 -0.10646217 0.20407999 -0.22647335 -0.17021295 -0.16601352 -0.07123703 0.03378319 0.08697594 0.14262056 -0.059674818 0.062210713 0.015321432 0.1508792 -0.08017843 0.05593268 -0.108283065 -0.018432545 -0.22131102 -0.13235644 -0.0779672 -0.1383669 0.03100289 -0.19333571 0.0063997875 -0.039218005 0.14295015 -0.14755015 -0.041633125 0.2638705 -0.13187438 -0.2538423 0.08355505 -0.072069235 -0.043203216 -0.07832759 -0.1272338 -0.11150945 0.073207654 -0.12092235 0.1242804 -0.26914686 0.030100899 -0.19338836 -0.0062696263 -0.06221263 0.09581188 0.018983476 -0.033425312 -0.2645083 -0.028062483 -0.046261784 0.2177515 -0.19033925 -0.24344425 -0.2762561 -0.12452684 0.10473403 0.048602566 -0.074822314 -0.1934278 0.022500316 -0.07214172 0.10727654 -0.056222938 0.09484517 0.17857431 0.014500275 -0.014330459 0.0678914 0.030250706 -0.18554662 -0.07530937 -0.11312435 -0.0026858372 -0.06597525 -0.088852964 -0.094902284 0.0013448198 -0.08037989 -0.17053126 0.27441177 -0.078268014 -0.120488845 0.1440468 -0.052248616 0.24307206 -0.025921656 0.15600501 -0.010077799 0.116037495 -0.050872386 0.022639107 -0.23928802 -0.19676639 -0.09966695 -0.0145061435 -0.02541585 0.14901382 -0.19613534 -0.045167163 0.22012188 -0.088635735 -0.09574433 0.11520974 0.021555617 0.33522153 0.14491056 0.17352968 0.11714446 0.011102134 0.24847452 -0.07787094 0.058180366 -0.1377043 -0.19907819 -0.07622254 -0.22846906 -0.018815411 0.09471808 -0.021713987 -0.1589334 -0.06429069 0.03472677 0.034486145 0.12193705 0.003434354 0.052928217 0.031977113 -0.14196339 0.11551267 -0.1201126 -0.10779863 -0.06064017 -0.20726821 0.22870527 0.08433914 -0.1110094 -0.38207573 -0.15091904 -0.14727074 0.1566447 0.05822709 0.07958686 0.13609585 -0.1603897 -0.036498446 -0.32166722 -0.041879095 -0.27211124 0.1826248 0.025133684 0.16947943 0.092482746 0.04798389 0.122944824 -0.21328607 -0.08657885 -0.10732001 -0.036155395 -0.011164605 -0.06094072 -0.07671879 -0.1087693 0.12765586 -0.17232138 -0.028924894 0.22495697 0.0055854465 -0.138118 -0.06021762 0.27884263 -0.14035659 0.19115138 -0.024327597 0.1550438 -0.24587636 0.017620606 -0.048706133 -0.030458424 -0.113640964 0.15862173 0.048371617 -0.15598413 0.21027067 -0.3121207 0.052712522 0.16058397 0.026262172 0.10986436 0.13062967 -0.024202097 -0.023806624 -0.2981814 -0.11131541 0.14604923 -0.031410884 -0.14074825 -0.07555166 -0.21979174 0.025147267 0.069690846 -0.15529005 -0.17131326 -0.33663583 0.08630526 -0.027817598 -0.12730107 0.24968414 -0.046239674 -0.11203627 -0.04633424 -0.1655882 -0.048099186 0.006973328 0.12319258 0.08558622 -0.16445214 0.021266483 -0.013569543 0.14109962 0.032645393 -0.24303105 0.29864302 0.03012716 -0.03383435 0.18412857 -0.31191358 0.0015113731 0.024705922 -0.07809214 -0.11389401 -0.035074495 -0.1932132 -0.01970532 0.06967907 -0.06351443 0.093490645 0.13622753 -0.102331445 0.08579808 0.018070625 -0.17831594 0.03084611 0.0013847188 -0.006856614 -0.20730233 -0.12286423 -0.070492536 0.07468732 -0.12932397 -0.50956184 -0.21077366 -0.0682656 0.1841971 -0.021360591 0.18395156
big 0.10357874 -0.0057685915 -0.013235763 0.08601412 0.0046725366 0.06516126 -0.10963782 0.005253176 -0.078342624 -0.045209646 -0.056260273 -0.052575078 -0.13766953 0.074399896 0.06838401 0.1008166 -0.091913976 0.024086526 -0.111121505 0.057829443 0.0362689 -0.14233692 -0.03457063 0.21717572 0.11134215 0.18354878 -0.0039684605 -0.0983432 -0.1014851 0.1263675 0.2304437 0.06119692 -0.22539951 -0.1951878 0.08418172 0.0256924 -0.009663179 -0.028060695 0.10870843 0.22973858 0.1037371 0.039695617 -0.0030556426 -0.071999714 -0.15234259 0.14587843 -0.28737134 -0.19672701 -0.12240037 0.0043170485 0.018208737 0.08423029 0.14346689 0.04445014 0.104532324 0.001747224 0.07470857 0.045059633 -0.052242212 -0.081958205 0.008127595 -0.09467118 -0.0330101 -0.08873779 0.0032686733 0.021955185 -0.18703833 0.006316806 -0.044337668 0.06329315 -0.025529806 -0.036026888 0.19354358 -0.14200029 -0.22210431 0.07057655 -0.08203704 -0.077557474 -0.10101746 -0.039668553 -0.06952342 0.059540283 -0.10198087 0.060884044 -0.17915492 0.03736977 -0.2111032 -0.0052767647 0.036791388 0.14458595 -0.00034220217 0.07206145 -0.2666239 -0.05568282 0.06315985 0.1953281 -0.1424368 -0.10436032 -0.2813492 -0.1368092 0.03741165 0.058639072 -0.013312019 -0.084376246 0.050929952 -0.067697585 0.013757489 -0.017946908 -0.050637975 0.15363911 -0.080717444 0.01007254 0.075358875 0.046058144 -0.1174268 -0.13837825 -0.030683782 -0.0399307 -0.06656581 -0.07146064 -0.022294356 -0.0599029 0.001397752 -0.15113163 0.1900881 -0.05988707 -0.13141596 0.11290188 -0.06890799 0.16663945 -0.04185569 0.04757618 -0.009673063 0.09216783 -0.04141317 0.014113122 -0.1345924 -0.08284314 -0.08025939 -0.097744144 0.06650498 0.055807527 -0.17118584 -0.0032999318 0.18967265 -0.034520544 -0.032172058 0.007892583 0.06816601 0.26132977 0.06793906 0.23829858 0.053067926 0.07810784 0.18548548 -0.08392233 0.037127778 -0.09166798 -0.13444258 0.0005263732 -0.09796921 -0.051036954 0.10970431 0.0020677443 0.09472321 -0.057008784 0.021425663 -0.04899323 0.07372829 -0.07568508 -0.023952024 0.021664005 -0.08629295 0.05277753 -0.15525445 -0.14111438 0.06299215 -0.22366394 0.11714176 -0.026998337 -0.050972804 -0.30736676 -0.17787017 -0.17671087 0.10592816 0.03755695 0.03149924 0.1843066 -0.16294415 -0.07772738 -0.20203204 0.007739812 -0.1916897 0.14176098 -0.07020461 0.21069632 0.07425227 -0.124077864 0.2132555 -0.14656873 -0.030464085 -0.14751475 -0.039575886 -0.016325546 -0.016655995 0.018693373 0.043694373 0.15559423 -0.105684996 -0.056163084 0.0772925 -0.05694095 -0.043300834 -0.16270594 0.25710437 -0.1945561 0.191695 -0.042735092 0.099280015 -0.19036977 0.13111278 -0.08527637 0.0829054 -0.08619679 0.1918136 0.060209323 -0.09844568 0.11787788 -0.22061186 0.037568774 0.15682814 0.10803022 0.012375589 0.067285016 -0.0476066 -0.0022181636 -0.26957756 -0.23992658 0.113487676 -0.02360033 -0.18642575 -0.04420021 -0.1808241 0.0965394 0.008858964 -0.074098326 -0.061656483 -0.30860835 0.15215448 0.020169925 -0.08650144 0.24894218 -0.09866195 -0.10927014 0.0333717 -0.19649613 0.042770028 -0.013431349 0.18699336 0.08768939 -0.12090388 -0.023741394 0.031172832 0.11443639 -0.024478395 -0.13053948 0.25415912 -0.01793602 0.008333897 0.20490962 -0.26380962 0.07463267 0.020764077 -0.019784505 -0.096236445 -0.08452574 -0.16969813 0.11592994 0.09424288 -0.10944995 0.095113456 0.09462783 -0.03262777 0.08432656 -0.008114085 -0.14323972 -0.024812585 -0.040546246 0.016724965 -0.2630296 -0.031631272 -0.029611185 0.027398549 -0.1066534 -0.36670783 -0.19281666 -0.022346519 0.08422436 -0.083925664 0.12058545
brasil 0.043579265 -0.015720854 0.03282083 -0.011465791 -0.027622527 0.039483543 -0.14967312 0.08275796 0.00039932053 -0.11246748 0.012436628 0.14453863 0.1998535 -0.047957804 0.10250148 -0.1535399 0.0735649 0.06052691 0.021422364 0.067358546 0.013990862 0.0036903974 0.09507629 -0.0014052028 -0.13376753 0.08113182 0.14621714 -0.16880979 -0.075756565 0.13567604 -0.11610481 -0.1583997 0.069054954 0.14779215 -0.10276065 0.02645545 -0.008608543 0.13287142 0.02614838 0.0926238 0.054819178 -0.058277663 0.19996065 -0.26305166 0.03234874 0.057309464 -0.13902794 -0.21161889 0.13130547 0.018850226 0.03345957 0.06072979 0.11702522 -0.14872785 0.043908704 -0.2512573 0.029645067 0.06905088 0.0354895 -0.1114189 0.095559336 -0.1323405 -0.1964626 -0.099570476 0.19713846 0.22680975 0.11745342 0.06375995 -0.043315258 -0.04858201 0.15778506 -0.06760584 0.0879114 0.06896461 -0.124375455 0.007983109 0.12948932 3.6604102e-05 0.03258361 -0.10407334 -0.10077848 -0.15413645 -0.015872018 -0.055447172 -0.13499255 -0.06619568 -0.25024968 0.17719188 0.13110921 0.080915056 -0.0030695766 0.017262073 0.0029823752 0.012984572 -0.11938627 0.15541594 -0.04084717 -0.1161939 -0.13565287 -0.050916597 0.0883844 0.15209012 -0.0943847 0.11866218 0.0062214304 0.07836543 0.05886985 -0.11859323 -0.028823081 -0.026267618 0.18564846 0.05891044 -0.030073296 0.048418667 -0.0508328 -0.030992122 -0.106268555 -0.07928997 -0.17561083 -0.04107482 -0.17693892 -0.023688043 -0.14003083 -0.027160786 0.12151101 0.10426621 -0.040637527 0.06809634 0.020688253 0.11922476 -0.049222834 -0.20000473 0.03923241 0.046724327 -0.06360532 0.0853652 0.11632889 -0.029779706 0.04205955 -0.08802164 0.17736587 -0.031078992 0.065528624 0.33936733 -0.086020984 0.016137317 -0.10771485 -0.19113514 -0.22296469 -0.0019293339 0.15409002 -0.19477727 -0.016526096 -0.05160925 0.012177116 -0.16358893 0.009956103 0.17938302 -0.06714382 0.113423936 -0.008224493 0.099689774 -0.11016041 0.018069036 -0.13527784 0.0326047 -0.14995028 0.061844844 0.047833007 -0.07722784 -0.059748255 -0.025790935 0.110416315 0.016438408 0.01238683 -0.16261141 -0.1344408 -0.04328926 0.10300986 0.15389356 -0.09673719 0.01869036 -0.15745139 -0.06667216 0.1940897 -0.121028535 0.06164718 -0.15147364 -0.12594943 -0.19538479 0.018980788 -0.16329576 -0.18628992 -0.034158457 -0.080355436 -0.11744643 -0.075324796 -0.04262827 -0.04090836 0.08743386 -0.12468939 -0.07233793 -0.044087302 0.11757653 0.12950428 -0.029198015 0.003160957 0.10577972 -0.15631664 0.14469917 0.07293986 -0.031018505 0.09841721 -0.26776093 0.04059843 -0.121347025 -0.17653686 0.028212124 -0.025751205 -0.011497199 0.14044909 -0.0459165 0.032590535 0.270739 0.091415 0.0033241785 -0.08491542 0.09744009 -0.23164944 -0.05594621 0.06497755 -0.09032297 -0.0028023468 0.023493743 -0.10199465 -0.03732179 -0.026113424 0.034163583 0.12700787 0.123770826 -0.09899635 0.027187642 0.1374917 0.06705414 0.2225632 0.03361328 -0.16502847 -0.08093882 0.004835383 -0.0066881073 -0.076476626 0.014470976 0.017773878 -0.17277342 0.17610581 -0.034518037 -0.10344653 -0.16759937 0.046164125 -0.016666308 0.21419746 0.148288 0.1313836 -0.11042792 -0.048978295 0.15050629 -0.010130124 0.08269982 -0.06730009 0.07093541 -0.06998141 0.041607074 -0.05596732 -0.16156381 -0.16361515 -0.007026905 -0.06645215 -0.036438607 -0.10254379 -0.10141938 -0.15920599 0.037480563 -0.02695493 -0.06622987 0.0145093 -0.082201056 -0.025565058 0.10379159 -0.078353286 -0.00796121 0.090191774 -0.032331638 0.06543245 -0.20207535 -0.16218878 0.0994862 -0.0004483834 -0.061552033 0.030799838 -0.028412921
open 0.122343615 -0.019089108 -0.11035683 -0.05085889 0.08621092 -0.07596156 -0.05217928 0.05056788 -0.040126137 -0.0650743 -0.037185695 0.20967947 0.19485067 0.012576463 0.13933662 0.044482574 0.16378625 0.16956061 -0.23960307 -0.025205541 -0.037157994 0.044260208 0.12998888 0.052421346 -0.18821044 0.012260749 0.18358059 -0.3219064 -0.14881799 0.27126643 -0.15671141 -0.0889134 0.031166995 0.030212473 -0.15038471 0.21159738 0.10616348 0.031078167 0.029848289 0.19517395 0.13703664 -0.091752514 0.24974173 -0.1428172 -0.113159396 0.07268424 -0.16539441 -0.23232251 0.08869518 -0.0775589 0.08491025 0.07595587 0.19738826 -0.13770273 0.17841884 -0.11742992 0.13087833 0.10125252 0.00077010976 -0.17519796 0.041343745 -0.27030283 -0.06192191 -0.025157988 0.30190372 -0.052329276 0.017982282 0.13480996 -0.018644186 -0.004873163 0.30121738 -0.2149331 0.16704653 0.0760592 -0.056175917 0.010229775 0.060588706 -0.037633434 0.13669473 -0.038344663 0.045063373 -0.050003752 0.004704358 -0.17421037 -0.14739794 0.0781876 -0.10920073 0.08354618 0.114457995 0.20933804 -0.042581838 0.077229485 -0.14313155 -0.08613767 0.13244805 0.30832255 0.01547302 0.011984729 -0.2761487 -0.074666016 -0.0016164432 0.14272188 -0.10535678 0.16587724 -0.07286662 -0.14086854 0.04722847 -0.09827059 0.011175356 0.12185956 0.21256515 0.13781942 -0.07289558 -0.02061148 -0.0055025243 -0.035248943 0.009186551 -0.12330606 -0.3652045 -0.15506196 -0.015092817 0.07078318 -0.028224444 -0.09346191 0.28625435 -0.0039221793 0.0072898576 0.09455683 0.06431567 0.36256096 -0.0052704304 -0.17910427 0.27542314 -0.013644687 -0.17965047 0.18750909 0.004999781 -0.24878517 0.039133884 -0.059577543 0.15225461 -0.077872455 0.114781976 0.40571484 -0.048301548 0.06378428 -0.14205334 -0.16358857 -0.2254147 0.12879035 0.24945411 -0.016674167 -0.122286595 -0.13977788 0.20750457 -0.1781357 0.051209405 0.1083883 -0.16119498 0.2863903 0.015093216 0.055131484 -0.12951739 0.04023451 -0.11747698 0.21454762 -0.2801283 0.19938391 0.21229191 0.06224688 -0.2072095 -0.16502349 0.1941776 0.17387487 0.13010688 -0.06852712 0.054177273 -0.18908302 0.062383953 0.07916826 -0.16002043 0.09999466 -0.26178622 -0.19498506 0.32942224 -0.20303959 0.09736388 -0.04210797 -0.24519467 0.028562259 -0.14448366 -0.004098176 -0.19247848 0.04936818 -0.264186 -0.010167729 -0.13767663 -0.10214218 0.14956653 0.09393437 -0.08101665 -0.11490014 0.028808616 0.1773531 0.14816782 0.0661589 0.023772188 0.22747454 -0.10112923 0.09784971 0.24560013 0.038350627 0.024142472 -0.2922551 0.106525734 -0.1885998 -0.13359378 -0.092903025 0.1781975 0.08327714 0.3402233 -0.13573217 0.050210144 0.32781368 0.03890175 0.07604458 -0.1298409 0.1894703 -0.031735685 -0.09549947 0.114726245 -0.00910214 0.0034211604 0.1203288 -0.11141431 0.014068836 -0.18416518 -0.2561352 0.17630664 0.024941359 -0.055398203 0.01632526 0.13040157 0.049182698 0.07510661 0.094229326 -0.13476747 -0.13300821 0.1109074 -0.098734386 -0.046626844 0.14634788 -0.030633485 -0.101660416 0.23840009 -0.116232604 -0.048536766 -0.22079444 0.05023365 0.191118 0.21033172 0.12632215 0.32927182 0.009628456 -0.039280362 0.062299922 0.10497952 0.13420156 0.074128486 0.06001099 -0.062982954 0.053384643 0.05996076 -0.030070644 -0.122282736 -0.15986437 0.08912761 0.10039753 -0.07284661 0.031475592 -0.14825301 0.089008465 0.04626518 -0.11855207 0.15064141 0.0009745378 0.060965963 0.2359206 -0.22011776 0.04742924 0.10401656 -0.013914813 0.16259538 -0.26490968 -0.23537229 0.10194445 -0.011800847 -0.068814136 -0.08830459 -0.11478002
milho 0.05760408 0.008430636 0.12259554 0.041315537 -0.06840036 0.094498314 -0.2062857 0.087289296 0.009292794 -0.1367496 -0.0022740175 0.098537765 0.25017124 -0.04562606 0.13363098 -0.2786503 0.055658873 0.018943625 0.15226488 0.020014841 0.008717097 -0.0068211285 0.13563405 0.024806947 -0.14346446 0.13576415 0.1481748 -0.12141047 -0.09745494 0.09158475 -0.08955699 -0.22606146 0.08897657 0.19475976 -0.12277637 -0.009535733 -0.049637754 0.21487796 0.06472944 0.066117086 0.03579859 -0.0060119145 0.1891721 -0.370777 0.094931826 0.0962864 -0.18428503 -0.19235969 0.21194398 0.049285863 0.025628332 0.047061406 0.0954926 -0.14205205 -0.021101877 -0.26933485 -0.029689929 0.05282183 0.061454136 -0.03504685 0.1453658 -0.08757411 -0.30024272 -0.113524295 0.18342745 0.35189155 0.15614821 0.021249194 -0.06470107 -0.1172835 0.1402959 -0.037705615 0.1092995 0.11580768 -0.16231643 0.043590922 0.18220352 -0.041351963 0.015457079 -0.12606259 -0.20024462 -0.20766476 -0.056125995 -0.021865819 -0.12771264 -0.18106802 -0.33579507 0.25417206 0.17801689 0.058636792 -0.054357164 0.018647084 0.09261463 0.00014435318 -0.21202469 0.14328435 -0.045162946 -0.19023857 -0.091000706 0.00637786 0.14853849 0.22892022 -0.11350423 0.11816732 0.045607153 0.2069939 0.08047279 -0.1176431 -0.057662215 -0.09273335 0.21485396 0.058531042 -3.905555e-05 0.0904515 -0.06126662 -0.038646076 -0.15807933 -0.09567047 -0.15081005 -0.0053191683 -0.27319407 -0.044816606 -0.21597317 -0.043239247 0.027437173 0.19614534 -0.0813106 0.116844214 0.03310547 0.044818915 -0.08078885 -0.21645005 -0.037552446 0.103673056 -0.02817138 0.07687388 0.19867195 0.07750756 0.06323254 -0.12514168 0.24816145 -0.061767362 0.04807576 0.3401756 -0.14523843 -0.020888798 -0.093098246 -0.22742517 -0.22675602 -0.008312245 0.121282525 -0.3885104 0.09172932 -0.024227668 -0.062405717 -0.15274814 -0.0046909614 0.22039813 -0.01896007 0.078593545 0.049247406 0.10808213 -0.11220561 0.018518744 -0.11731674 -0.03569667 -0.1409168 -0.016899744 -0.028149338 -0.18072319 -0.038222127 0.06422092 0.10812356 -0.07311303 -0.05552586 -0.22622208 -0.15904737 -0.020668156 0.09904013 0.2235289 -0.065342985 0.018399237 -0.18202697 -0.020018851 0.16364793 -0.0838793 0.044423383 -0.2588388 -0.09654029 -0.33771953 0.09581247 -0.26353455 -0.16290233 -0.07311411 -0.041079503 -0.15821862 -0.051551506 -0.083116345 -0.12009311 0.12427408 -0.1562575 -0.090183936 -0.102348246 0.091278665 0.13662481 -0.036895994 0.013487677 0.051128417 -0.22738579 0.14436823 0.0070473272 -0.109178655 0.10348832 -0.31032008 0.003940855 -0.1268371 -0.21765703 0.10933889 -0.12783426 -0.056787882 0.059068173 -0.026332472 0.0067897476 0.32667753 0.091171086 -0.009170226 -0.08762579 0.040369496 -0.34189686 -0.021636842 0.060232043 -0.12052349 -0.0015590391 -0.009420207 -0.08897463 -0.034260686 0.0070737056 0.16409387 0.11185359 0.22821535 -0.08964315 0.04415617 0.18214373 0.116741486 0.32730666 0.0049626934 -0.2292703 -0.098907635 -0.04781887 0.050266843 -0.14292033 -0.06373988 0.036597274 -0.18277007 0.17737544 0.0069066104 -0.17535247 -0.13325036 0.08643335 -0.07759109 0.25574848 0.18006773 0.036754098 -0.14101699 -0.03419245 0.22943923 -0.120532125 0.040830307 -0.121506974 0.13805664 -0.09821198 0.022087082 -0.1337874 -0.22121368 -0.1818152 0.05682553 -0.15557888 -0.1133428 -0.1292685 -0.20105541 -0.22902797 -0.019040354 -0.060402885 -0.07772468 -0.04868725 -0.15048046 -0.0519305 0.020143569 -0.07112248 -0.05826066 0.15055764 -0.06593749 0.027462503 -0.1936824 -0.14553556 0.10733266 0.0033117824 -0.06732526 0.07401914 0.03423503
bank 0.0804274 -0.077004395 -0.084095776 -0.031132638 0.0568059 -0.10140403 -0.055583272 0.042676657 -0.015757602 -0.07124737 -0.05093732 0.2637528 0.29082647 -0.012148772 0.08927192 0.0046820757 0.16882594 0.18878339 -0.2547657 0.037553582 0.023949562 0.028942617 0.16691566 0.020065278 -0.21794039 0.03216658 0.19797081 -0.3470096 -0.10698684 0.29346597 -0.12361439 -0.115524285 0.02134843 0.057555728 -0.10078576 0.15867618 0.14436772 0.06466519 0.052907474 0.21539074 0.11185692 -0.104760006 0.27141812 -0.1583971 -0.11858992 0.07176151 -0.1951187 -0.2988781 0.12201772 -0.103705734 0.108707875 0.11579559 0.22291084 -0.15405309 0.19189098 -0.17372513 0.17694956 0.1514202 -0.015768072 -0.19710074 0.0744002 -0.22500281 -0.11025767 -0.11512904 0.31507757 -0.047932822 0.06320971 0.12984128 0.002387162 -0.0127464505 0.32878566 -0.22732458 0.11464034 0.032552905 -0.0785263 0.039353363 0.070407875 0.010657002 0.12751049 -0.10902358 0.023302725 -0.027285533 0.0014481856 -0.18655398 -0.11181935 0.058597032 -0.17105862 0.07087329 0.1346123 0.18225399 -0.007600154 0.033687167 -0.15653223 -0.06974807 0.13779317 0.25585333 0.009079421 -0.06300744 -0.30900908 -0.04896393 -0.026236087 0.10337265 -0.100548476 0.22447108 -0.06749172 -0.1718213 0.022082826 -0.121352546 0.07769951 0.1081737 0.21152891 0.17173296 -0.06325896 0.013166718 -0.028553978 -0.11303655 -0.04525535 -0.09496448 -0.3736673 -0.21202761 0.030370412 0.08952834 -0.09402137 -0.03514257 0.3421082 0.044910863 0.012386733 0.06591461 0.052141104 0.37970477 0.050389815 -0.18709092 0.29445782 -0.034274373 -0.18239735 0.1845429 0.028817365 -0.23533817 0.074160144 -0.072583705 0.14975001 -0.11548348 0.1531497 0.40929744 -0.063488945 0.14325537 -0.12889385 -0.17497471 -0.2316683 0.089579605 0.21807489 -0.01959749 -0.16204654 -0.10069779 0.26417723 -0.16970311 0.064261004 0.15272889 -0.14821929 0.3088118 -0.0042462572 0.07348249 -0.10557329 0.035983834 -0.17705473 0.17708893 -0.28578296 0.23954424 0.18881011 0.050995898 -0.20961191 -0.16359562 0.15169469 0.17479968 0.13829617 -0.15706529 0.044885535 -0.20527948 0.0534622 0.08947386 -0.14819767 0.11507348 -0.31328556 -0.23912187 0.34873226 -0.3180688 0.090066895 -0.077797554 -0.23376216 0.055312634 -0.14715666 0.0060979035 -0.20480613 0.024577547 -0.23286831 0.0011747127 -0.13481292 -0.13198933 0.10094086 0.091586895 -0.080777705 -0.11175717 0.06639068 0.20348051 0.1905498 0.046052847 -0.020441558 0.20445707 -0.05314754 0.060284495 0.23576297 0.030093456 0.067907855 -0.27686036 0.08114347 -0.14841188 -0.11616708 -0.10555718 0.20482141 0.044094607 0.32111046 -0.11517801 0.091698274 0.36671218 0.07536916 0.03777454 -0.12744465 0.12649542 -0.063717015 -0.09168163 0.10907282 0.027041236 0.034411255 0.13298768 -0.17143051 -0.020884987 -0.13064928 -0.20990472 0.26662993 0.039754547 -0.052988183 -0.008813501 0.1402504 0.049744572 0.12071873 0.13267909 -0.14291449 -0.11179058 0.15548816 -0.06848049 -0.037955295 0.097828686 -0.0025083884 -0.0995995 0.20122005 -0.05599145 0.019580688 -0.228528 0.028767906 0.18347166 0.22370352 0.15400209 0.32217842 -0.04778016 -0.06213795 0.118879825 0.15057637 0.15576705 -0.001655946 -0.0041990536 -0.032924175 0.037270185 0.058298733 -0.04683234 -0.20056498 -0.15440355 0.112189725 0.13255948 -0.04667068 0.07733795 -0.16809928 0.058345594 0.06219524 -0.071492925 0.13562629 0.008268622 0.019584652 0.20954663 -0.22052006 0.089830145 0.13680308 -0.031248847 0.15606771 -0.2907134 -0.21653779 0.12730114 -0.03354145 -0.01280024 -0.07674308 -0.06387996
mai 0.041546304 -0.015027682 0.056049526 0.015976135 -0.053910084 0.06012724 -0.13814643 0.08600353 0.002182763 -0.12296178 0.024089528 0.073711686 0.1404545 -0.04582822 0.084502995 -0.1620542 0.022824656 0.026569778 0.0886989 0.08604948 0.046860483 -0.035062116 0.065520786 0.0025348295 -0.082447425 0.1216136 0.11676985 -0.12511179 -0.05500077 0.098259404 -0.073708795 -0.14878012 0.050860386 0.12710755 -0.053802054 -0.024879983 -0.040935244 0.1355895 0.024431102 0.0661294 0.05406678 -0.03903499 0.13835979 -0.25517076 0.047033288 0.060633466 -0.13419463 -0.18744029 0.1056733 0.03998967 0.011203568 0.054278 0.088015884 -0.13409871 0.009714422 -0.22851284 -0.0012034891 0.04194701 0.025251856 -0.09589661 0.09566607 -0.09803172 -0.17904055 -0.09134607 0.12285198 0.24247687 0.083699465 0.04332514 -0.04824127 -0.01654884 0.093439125 -0.017640961 0.07292005 0.04349074 -0.1503695 0.009863968 0.11558884 0.0073848027 0.0031713832 -0.11385341 -0.118147776 -0.15462302 -0.017017137 -0.015756061 -0.12981254 -0.07916568 -0.24257119 0.17821054 0.10618634 0.04865793 0.017710181 0.002288358 0.01141117 0.026041802 -0.16983803 0.0995801 -0.0784345 -0.13175431 -0.10421541 -0.058747407 0.09747638 0.1295866 -0.08048997 0.05858437 0.01932062 0.10832908 0.061487883 -0.11349437 -0.035879724 -0.03616453 0.14712004 0.02114821 -0.013335565 0.03713781 -0.047094323 -0.015641553 -0.12705764 -0.07510861 -0.104493774 -0.01547958 -0.20325044 -0.03606303 -0.1366562 -0.031687524 0.10219512 0.07973845 -0.06094823 0.05903018 -0.0011389154 0.059531912 -0.06793141 -0.16246264 -0.02756125 0.05385567 -0.055054285 0.052390624 0.10138038 -0.009795048 0.021645525 -0.08900121 0.16239542 0.0011720655 0.019867865 0.28560057 -0.0565084 -0.00985651 -0.0883398 -0.15682688 -0.19089131 0.011878898 0.11666735 -0.15640312 0.02318956 -0.025829526 -0.008640213 -0.15581493 0.012219482 0.14077985 -0.06834465 0.040742997 -0.019545607 0.08372051 -0.095327355 -0.0010432838 -0.121266656 -0.013554913 -0.0939654 0.0035033678 0.025182651 -0.108141154 -0.02074831 0.0040123914 0.07088964 -0.021242574 -0.037732936 -0.1538767 -0.1700501 -0.01492957 0.12538514 0.13844475 -0.07385437 -0.038252927 -0.10813073 -0.03571783 0.1466458 -0.060190473 0.035454337 -0.13186756 -0.0949473 -0.22909403 0.010223533 -0.16620827 -0.17654626 -0.031915564 -0.03906523 -0.09547659 -0.0266271 -0.014134996 -0.064501196 0.036640987 -0.12124487 -0.074965306 -0.05202522 0.08144986 0.09590484 -0.050109 -0.0024106258 0.08118779 -0.17181876 0.13203679 0.05888572 -0.038710438 0.07543287 -0.22303279 0.05247335 -0.11510585 -0.16328526 0.039241698 -0.0619345 -0.050196175 0.09022721 -0.024340939 0.033860665 0.19330812 0.100231014 -0.014662652 -0.072467156 0.08128171 -0.24112464 -0.024721827 0.06161467 -0.07993239 -0.000562266 0.020192098 -0.083820656 -0.047441218 -0.014692438 0.0757116 0.074030876 0.12323699 -0.10711272 0.0011467797 0.11104214 0.06292298 0.20008749 0.0015824735 -0.16312428 -0.091242 -0.010433575 0.01995921 -0.097799845 -0.0015537711 0.015806861 -0.19349118 0.14589238 -0.035186604 -0.1216236 -0.124928474 0.050498877 -0.057999134 0.17506824 0.1198243 0.07601039 -0.104638316 -0.03162581 0.12490625 -0.018467933 0.04916731 -0.084102415 0.08892032 -0.090589195 0.04533422 -0.06565779 -0.17004272 -0.14536381 0.02847517 -0.12803216 -0.054977253 -0.0966488 -0.13708933 -0.12593637 0.030348733 -0.034515288 -0.032965016 -0.01459569 -0.11167148 -0.029662732 0.061873715 -0.02660102 -0.032262973 0.06512751 -0.015866471 0.0428743 -0.16769499 -0.17525172 0.052006673 -0.003412816 -0.044438306 0.060014207 -0.011605528
busi 0.12597167 -0.0120252585 0.008395734 0.114554815 -0.0013544334 0.077505134 -0.118823506 0.011012365 -0.09381411 -0.09743045 -0.06145571 -0.082748845 -0.16840373 0.07812057 0.07626261 0.07322788 -0.13254268 0.008598692 -0.08544188 0.06956175 0.07232199 -0.17150177 -0.050223164 0.21477921 0.15929697 0.21541193 0.006736022 -0.12547244 -0.09352489 0.09934594 0.26237738 0.06572635 -0.2595292 -0.20730726 0.09616807 0.011450402 -0.028949294 -0.044633184 0.12449948 0.24458899 0.13034013 0.054549567 -0.015797222 -0.07394328 -0.1697059 0.18737519 -0.3129886 -0.1989312 -0.13597652 0.020054214 0.029982287 0.0888164 0.1400112 0.067146935 0.097762205 -0.015124829 0.06767145 0.03395291 -0.060627438 -0.09102293 0.0016423911 -0.11122163 -0.043439962 -0.08510713 -0.04201341 0.03261853 -0.21927255 -0.0012545879 -0.05648571 0.07969351 -0.058792286 -0.0075924145 0.21256931 -0.14861465 -0.26953864 0.07106501 -0.079920255 -0.06931894 -0.13070026 -0.072554715 -0.08542815 0.077897646 -0.12646635 0.09294596 -0.18399543 0.05066623 -0.24002425 -0.0015788482 0.030328143 0.14361955 0.00981554 0.07337061 -0.3093565 -0.05389896 0.027880695 0.19662133 -0.18731177 -0.14085647 -0.30073458 -0.15213548 0.06721355 0.068347566 -0.033674885 -0.1314884 0.078641534 -0.06523085 0.018356571 -0.01855668 -0.04017516 0.16893958 -0.08130817 -0.004595885 0.09481951 0.030519009 -0.13862243 -0.13144152 -0.045644213 -0.022822494 -0.040987812 -0.06348749 -0.0540319 -0.06691972 -0.028506437 -0.167635 0.20944908 -0.06655585 -0.14925851 0.1054751 -0.07856531 0.18465441 -0.0690096 0.06568295 -0.04680807 0.12055472 -0.043369804 0.0046481765 -0.16000746 -0.089363486 -0.101595536 -0.11371748 0.07764095 0.04837941 -0.19732046 0.003985469 0.20716114 -0.057689656 -0.055371888 0.04847564 0.089358106 0.29897422 0.06458114 0.28438154 0.07782287 0.084308125 0.20963286 -0.07974845 0.04472268 -0.11146836 -0.16918719 -0.035421472 -0.13241388 -0.079302914 0.117895834 -0.03944931 0.07114439 -0.09041409 0.043799564 -0.08005023 0.059443142 -0.058026113 -0.02220349 0.010140193 -0.11439471 0.053528924 -0.17185163 -0.15095416 0.033559613 -0.24143589 0.14656733 -0.03459796 -0.039000582 -0.36977997 -0.16053227 -0.17292608 0.09884679 0.05476019 0.007765996 0.20908861 -0.16387238 -0.104584694 -0.25484732 -0.0034994413 -0.21786404 0.16237547 -0.07392289 0.24506904 0.11333771 -0.10689094 0.2392364 -0.18499294 -0.026456712 -0.15427138 -0.04448752 -0.0028496222 -0.018056989 0.016648056 0.038729385 0.1742156 -0.13514619 -0.04854813 0.11339172 -0.06817521 -0.05843716 -0.13444714 0.2834392 -0.2019528 0.21257769 -0.04070102 0.11523394 -0.24333322 0.15513818 -0.092026986 0.094801344 -0.12034793 0.21348144 0.05193163 -0.11687723 0.12186893 -0.25092676 0.023884827 0.18607873 0.10699348 0.038162068 0.09782626 -0.051684864 -0.0032663723 -0.30392694 -0.25719178 0.1049493 -0.016715793 -0.18679051 -0.07894187 -0.21365002 0.1131382 -0.014976434 -0.10355965 -0.08588083 -0.35644165 0.17548372 0.01748506 -0.10419823 0.2716761 -0.093715385 -0.13834278 0.044477146 -0.22968459 0.020035846 -0.01771326 0.21817833 0.11938799 -0.1434163 -0.013584848 0.02587887 0.11256969 -0.021338247 -0.15755978 0.28542548 -0.014485307 0.004102424 0.20918134 -0.32426006 0.081399985 0.01823635 -0.031027058 -0.09812265 -0.082349636 -0.21017237 0.12549993 0.0803091 -0.13056819 0.13152036 0.12753618 -0.03293682 0.102520436 -0.019155875 -0.16611739 -0.03185058 -0.056199435 0.029229721 -0.31565422 -0.053044032 -0.007557163 0.030385105 -0.12213175 -0.4133522 -0.21473643 -0.024337431 0.10174625 -0.094213754 0.12481807
covid 0.053996176 -0.016381135 0.034509443 0.048129044 -0.008341995 0.062806375 -0.10714488 0.041503053 -0.027584996 -0.09021739 -0.015706155 0.017365165 0.015278748 0.0106909275 0.06016592 -0.04682255 -0.016011218 0.012991173 0.00035993554 0.06085387 0.034712844 -0.06652542 0.0125593925 0.08369921 0.019469036 0.114444755 0.058923658 -0.10424809 -0.06274975 0.0807676 0.059142377 -0.034645796 -0.063737474 -0.0017344762 -0.0058315485 -0.0095899515 -0.015798094 0.038932703 0.057891343 0.13880655 0.07164469 0.0068290923 0.056660417 -0.12993696 -0.041727375 0.09241906 -0.18193214 -0.16150093 -0.0011163707 0.016980248 0.021417348 0.048928827 0.096128896 -0.041875236 0.04060964 -0.115570985 0.038193822 0.021220397 -0.0021975215 -0.066305816 0.035799492 -0.10574112 -0.10901178 -0.08262722 0.050270177 0.13656583 -0.037750512 0.021144751 -0.05923058 0.0060662082 0.019321192 -0.022247447 0.12307486 -0.025625523 -0.16507334 0.030366238 0.034038886 -0.03185124 -0.043873984 -0.07090644 -0.103373244 -0.034380127 -0.058993313 0.02156331 -0.13520093 -0.02573716 -0.20543237 0.08549434 0.0617867 0.09582804 0.005973156 0.04175538 -0.10504482 -0.010396707 -0.05636472 0.14100587 -0.09134557 -0.123789534 -0.16055343 -0.06721484 0.086779945 0.101049736 -0.046342276 -0.0091490345 0.046893153 0.035747685 0.036600042 -0.06815711 -0.03158614 0.053101875 0.051385757 0.01549571 0.02878741 0.030666355 -0.0752456 -0.054919474 -0.067456774 -0.026793059 -0.07303655 -0.045739148 -0.11033814 -0.055951502 -0.08423789 -0.07870457 0.12893282 0.025247881 -0.08610659 0.072792135 -0.029143406 0.10505127 -0.044240102 -0.05812874 -0.020693127 0.06976973 -0.04232863 0.03656371 -0.006957038 -0.027474059 -0.01374844 -0.080920234 0.09668896 0.019486422 -0.05844657 0.12667711 0.03169192 -0.028719973 -0.07443211 -0.06342841 -0.061884202 0.116465084 0.082409695 0.006113164 0.037716836 0.014482028 0.092499696 -0.08941259 0.01974214 0.03283203 -0.09593819 0.009632303 -0.056102715 0.011756211 -0.008531642 0.0058218963 -0.026192065 -0.02543131 -0.030525245 -0.027919468 0.020754315 -0.06586782 -0.027527926 0.022620874 0.004379303 0.0114786895 -0.07901276 -0.12558468 -0.051935613 -0.090788186 0.10296139 0.06987754 -0.04133848 -0.13236538 -0.11948974 -0.083116315 0.10973016 4.5349036e-05 0.03253923 0.00898197 -0.10498073 -0.14884861 -0.07205649 -0.08065439 -0.17486417 0.045673747 -0.036967672 0.04098499 0.009672618 -0.048704997 0.06161797 -0.043043386 -0.049133547 -0.07896446 -0.051191796 0.034378223 0.032787785 -0.022450631 0.0031422528 0.098580785 -0.12820461 0.04668407 0.06917389 -0.041585363 0.016633514 -0.15490709 0.12097343 -0.12394555 0.0129479375 0.01588954 0.0137314005 -0.10586287 0.103129864 -0.050784744 0.03472834 0.058495145 0.13006489 0.011694696 -0.08374346 0.08105815 -0.21631426 -0.0084129 0.08724613 -0.015707472 0.026785903 0.042972732 -0.056618784 -0.0141011 -0.12686026 -0.06550143 0.07862798 0.05034524 -0.106284015 -0.009789477 -0.030608004 0.0626558 0.10838951 -0.036180466 -0.11306628 -0.17153727 0.051133238 0.01362128 -0.083536714 0.09243586 -0.017349865 -0.13318455 0.077536404 -0.09866231 -0.044944104 -0.06662558 0.102703735 0.025364568 0.040694825 0.053952064 0.039406266 -0.018991798 -0.022112522 -0.0032409097 0.096562296 0.025424464 -0.03692832 0.12699997 -0.15528001 0.047034036 -0.03316692 -0.095143706 -0.10457358 -0.022703065 -0.118552886 0.012108745 -0.010275331 -0.10947459 -0.017651817 0.06801795 -0.029138612 0.0134643195 -0.008691216 -0.117439106 -0.01758655 0.017912826 -0.015444911 -0.12825087 0.015032059 -0.02023821 0.017331239 -0.11803901 -0.2118038 -0.0469982 -0.0064912783 0.010994392 -0.01983912 0.04874952
driven 0.11202103 5.5300756e-05 0.004485497 0.12726441 0.005586778 0.08945498 -0.11129777 0.015379152 -0.090141945 -0.06845397 -0.041268494 -0.08117779 -0.13282205 0.07876365 0.062019352 0.075377405 -0.1097009 0.0052512675 -0.07674596 0.05022044 0.045441594 -0.15618384 -0.03728678 0.21655981 0.12661612 0.22179192 0.0066644396 -0.09122784 -0.11040916 0.11056756 0.25723752 0.041694034 -0.21997939 -0.18606806 0.08527179 0.0046414062 -0.02464625 -0.033685856 0.1250348 0.23099747 0.12982446 0.06485175 -0.0055854036 -0.0896398 -0.16431369 0.1727058 -0.3065686 -0.19103928 -0.116339 0.01683242 0.015088692 0.06532185 0.13036275 0.07009638 0.09625993 0.0022684124 0.065450616 0.036482356 -0.052519966 -0.06701161 0.027433405 -0.09333387 -0.045966 -0.06252623 -0.023129325 0.032431237 -0.19320442 -0.0021111069 -0.0620025 0.059117783 -0.02982892 -0.026837045 0.19068135 -0.14086153 -0.2365119 0.07914304 -0.066236526 -0.07490766 -0.10202692 -0.050082844 -0.08322642 0.047024667 -0.11163724 0.063254766 -0.1740993 0.0139840655 -0.23487231 0.021518642 0.0340396 0.14036678 0.0058251275 0.07739866 -0.26632664 -0.074315704 0.04447843 0.19120866 -0.16223884 -0.119137205 -0.2762263 -0.12016428 0.046584856 0.06880687 -0.023386432 -0.09401147 0.06544 -0.048532303 -0.0018306416 -0.023694266 -0.05404309 0.13814387 -0.079478756 0.0073196446 0.084665805 0.042874306 -0.09819104 -0.13322623 -0.037204638 -0.013746722 -0.05499572 -0.07204481 -0.050125703 -0.0785171 0.004679378 -0.16622719 0.18066669 -0.037998352 -0.14315467 0.100438505 -0.06891173 0.150412 -0.051718246 0.045683887 -0.0393489 0.09724343 -0.033895843 0.018254109 -0.10171739 -0.062307607 -0.0782629 -0.12025589 0.07870515 0.048833158 -0.19067696 0.0010519746 0.17046563 -0.0449884 -0.044378236 0.020521818 0.081942886 0.27000496 0.06303546 0.24227072 0.0663799 0.08730702 0.17877927 -0.08217906 0.027328981 -0.08242368 -0.12497565 -0.009256309 -0.08769433 -0.0775338 0.09635263 -0.008726799 0.10290431 -0.067273706 0.024494907 -0.097186 0.0644957 -0.09113701 -0.01848745 0.022221224 -0.08541938 0.022995893 -0.17672913 -0.14822105 0.063191 -0.21037015 0.11700022 -0.025821721 -0.057215117 -0.30674645 -0.17309141 -0.1583959 0.07636066 0.071782425 0.014509678 0.17089655 -0.16459328 -0.12693083 -0.19359697 -0.0014767714 -0.1982497 0.13620546 -0.056409206 0.22266126 0.09477889 -0.12632403 0.2026963 -0.14662553 -0.014181182 -0.15320247 -0.05453227 -0.0080277845 -0.02310067 0.032577932 0.043028284 0.13681763 -0.11190251 -0.041570876 0.08579362 -0.076390676 -0.045099743 -0.1577149 0.24086803 -0.1930757 0.1892329 -0.032183122 0.08007287 -0.20970789 0.13739562 -0.09472584 0.09116884 -0.1099688 0.20655295 0.05967025 -0.08479564 0.09366993 -0.23329186 0.04993866 0.16202746 0.100356944 0.03757124 0.06442688 -0.045823704 -0.0005180066 -0.27013046 -0.24202156 0.092663124 -0.020715786 -0.19228546 -0.048007704 -0.18387508 0.10180795 0.018390428 -0.091618665 -0.08011669 -0.3030534 0.16410588 0.020570783 -0.09446117 0.23400092 -0.09323851 -0.12305754 0.042544145 -0.19936015 0.04505119 -0.013400462 0.21104127 0.09419973 -0.11744415 -0.02775293 0.035847116 0.113643825 -0.022305269 -0.1211279 0.24951755 -0.033468872 0.0032698934 0.23165993 -0.29098716 0.072902635 -0.006018472 -0.050723955 -0.07504112 -0.06876556 -0.20345719 0.09842373 0.10147529 -0.1258576 0.09332516 0.10114992 -0.027881742 0.07900526 -0.029411886 -0.1695457 -0.02644446 -0.05253079 0.023020381 -0.29175404 -0.03821917 -0.032170177 0.0014073754 -0.08903001 -0.3603645 -0.1936679 -0.012331942 0.08905357 -0.08656692 0.13895732
intellig 0.101837456 -0.015219724 -0.0065336386 0.09981912 -0.012376312 0.06079165 -0.098141775 0.040058643 -0.08306023 -0.10824177 -0.031433556 -0.06495798 -0.18101288 0.050455965 0.049496174 0.07594696 -0.14765252 0.01991746 -0.08417152 0.1049006 0.09162898 -0.1876326 -0.07825236 0.19256355 0.16984993 0.21143375 0.015610004 -0.14199187 -0.07014849 0.08798306 0.2355845 0.07626851 -0.24448147 -0.2025856 0.10258356 -0.0025068491 -0.037874322 -0.05015315 0.090531304 0.22160985 0.13154647 0.044698536 -0.04770309 -0.080721445 -0.17220104 0.1793511 -0.2961217 -0.20804174 -0.13208659 0.023090271 0.01474905 0.09640118 0.12926352 0.04648435 0.096043676 -0.031171162 0.07897114 -0.0064818175 -0.055756975 -0.11423555 -0.019438446 -0.12531456 -0.04248419 -0.096746124 -0.03649852 0.061819445 -0.22134796 0.012192019 -0.06191536 0.11126217 -0.047581606 0.0046226867 0.1848044 -0.13944428 -0.2710836 0.054101855 -0.08254738 -0.038437136 -0.12126878 -0.07914036 -0.07641687 0.0737613 -0.091143504 0.08906406 -0.18949518 0.07637468 -0.20393677 0.0012693449 0.014888383 0.1437483 0.027677195 0.058415543 -0.31490186 -0.021563677 0.0015899132 0.168773 -0.20233595 -0.13901913 -0.2989523 -0.16052471 0.06203711 0.05551238 -0.018591281 -0.13657454 0.072457545 -0.07015313 0.022973167 -0.038970675 -0.03594706 0.17131808 -0.05176861 -0.019994892 0.089886665 0.024385981 -0.13551675 -0.119053856 -0.05083694 -0.030276764 -0.027476259 -0.0726986 -0.05945484 -0.07556469 -0.011504562 -0.16714841 0.22057445 -0.0926856 -0.15885743 0.095367804 -0.07574605 0.19988132 -0.08729782 0.057678845 -0.051073827 0.08901941 -0.04455818 0.0058854157 -0.15396029 -0.11392791 -0.09796127 -0.098946944 0.06832685 0.07308954 -0.19269677 0.031456113 0.21039858 -0.047737036 -0.06769383 0.03697108 0.059953224 0.28311574 0.052993223 0.30107322 0.057864346 0.07333381 0.20871943 -0.088068135 0.04522804 -0.112940125 -0.20245324 -0.069512166 -0.16562971 -0.0674923 0.07900632 -0.044886995 0.031002184 -0.071543895 0.042715307 -0.065481216 0.06829574 -0.05424818 -0.014015463 -0.028017322 -0.11695743 0.080686145 -0.14583601 -0.14100455 -0.012398982 -0.21989854 0.16446562 -0.030900842 -0.049715362 -0.35239145 -0.128385 -0.15760145 0.10109195 0.05068776 0.02496855 0.22870307 -0.17230201 -0.0779738 -0.2447093 -0.0030954694 -0.22638355 0.15455516 -0.07434595 0.21824867 0.109836385 -0.05911951 0.20992485 -0.2069254 -0.033088557 -0.13650987 -0.049184866 0.007092778 -0.013927231 -0.024582049 0.022105023 0.15539996 -0.11917303 -0.03813791 0.119328104 -0.04346488 -0.045409326 -0.111580275 0.27141795 -0.1904519 0.1763121 -0.024411997 0.12551445 -0.22816801 0.13121074 -0.09839764 0.08335596 -0.112241596 0.21465749 0.022448549 -0.12080191 0.16185048 -0.25274944 0.032330625 0.187137 0.09539918 0.037429422 0.12507132 -0.04112687 0.0022808006 -0.28097895 -0.23420224 0.090495825 -0.026094837 -0.18775007 -0.083414115 -0.19885738 0.08570889 -0.019518642 -0.10694484 -0.08933182 -0.344539 0.15164812 0.012084775 -0.10352073 0.2567566 -0.0823834 -0.15154697 0.026461339 -0.23040321 0.012030432 -0.037255663 0.17054203 0.08316513 -0.12915254 -0.013928091 0.03027472 0.10476477 -0.030607898 -0.15965533 0.28819188 -0.02007645 -0.019786535 0.18045044 -0.31062934 0.08986938 0.005772936 -0.034483265 -0.09778302 -0.06512599 -0.20523435 0.11739678 0.06265733 -0.13505624 0.12723105 0.13780607 -0.02329618 0.086415306 -0.027900677 -0.16370599 -0.01720551 -0.05484424 0.044721864 -0.2740405 -0.07109389 0.0050888974 0.041615188 -0.13613164 -0.4340255 -0.23478287 -0.048089776 0.09558627 -0.07940757 0.07941224
sobr 0.052380145 -0.052941535 -0.0018286214 0.0028549754 -0.00068573304 0.005463501 -0.08265063 0.041095313 0.00046330123 -0.09219892 -0.017726313 0.11357726 0.17394163 -0.017523414 0.08758144 -0.09522122 0.055802975 0.068064876 -0.018843869 0.053245604 0.057679653 0.0071539036 0.098871835 -0.00071876723 -0.123818286 0.08592264 0.105630256 -0.16677548 -0.07956225 0.16837662 -0.14063597 -0.087230235 0.045269907 0.1159367 -0.086025104 0.05427975 0.033490323 0.06997169 0.040262867 0.1235203 0.064661786 -0.064033955 0.16550916 -0.16172591 -0.024890432 0.07335258 -0.1317679 -0.20605892 0.08239772 -0.022267967 0.0598452 0.048198014 0.110619985 -0.16315398 0.06349479 -0.1799361 0.060088754 0.07600057 0.021558706 -0.14547993 0.07881955 -0.14025451 -0.13528427 -0.050365467 0.160999 0.111962356 0.057019066 0.08858193 -0.023890063 0.0053153974 0.14393958 -0.094234295 0.097476944 0.0370879 -0.1114489 0.007017917 0.08364479 -0.00084937137 0.051620107 -0.11017691 -0.06964119 -0.10960852 -0.0050082593 -0.07361078 -0.12241662 -0.043169484 -0.17811503 0.12074582 0.08880243 0.086352296 0.008178506 0.035898473 -0.0420518 -0.013624683 -0.06112555 0.16857144 -0.044669244 -0.092176 -0.14284225 -0.046111446 0.042115822 0.106958754 -0.09069462 0.10530318 -0.014264281 -0.012969574 0.042689357 -0.11161622 0.011556032 0.031820063 0.14371447 0.05230105 -0.031973273 -0.009793183 -0.011128273 -0.01806824 -0.09382575 -0.06758027 -0.18749972 -0.06499746 -0.106036104 0.0098627955 -0.102109 -0.0519004 0.1730639 0.05277832 -0.021424964 0.039643593 0.019847363 0.14222081 -0.004242814 -0.14547849 0.0803537 0.0006680262 -0.10754693 0.09846854 0.03847874 -0.1058767 0.020929357 -0.050449286 0.13917515 -0.019277161 0.0767052 0.31611183 -0.044784926 0.02811992 -0.08136554 -0.13391078 -0.19509603 0.076094985 0.147593 -0.0683364 -0.05285452 -0.069329575 0.098389655 -0.16288202 0.026812704 0.12994328 -0.07634919 0.1359469 -0.021073105 0.07158886 -0.10157368 0.025584571 -0.14015597 0.06945023 -0.14898588 0.07103949 0.0907088 -0.028932614 -0.07689374 -0.05015347 0.121936336 0.029317873 0.013478827 -0.10268316 -0.07903099 -0.073550604 0.0902585 0.11616207 -0.10606715 0.021641297 -0.16425604 -0.1254607 0.2242603 -0.11403572 0.08376943 -0.08994085 -0.12306084 -0.12938017 -0.040614013 -0.10714486 -0.17359507 -0.013496831 -0.10477206 -0.05579728 -0.07296714 -0.033502433 0.008523248 0.053347047 -0.09925978 -0.08436494 -0.0059071924 0.11906346 0.115171336 -0.02147182 -0.011908505 0.13739438 -0.13423128 0.117393605 0.13345377 -0.018642915 0.037318718 -0.23201151 0.07985671 -0.128757 -0.13070394 -0.004182526 0.057917718 -0.020474577 0.17911685 -0.064599216 0.0397874 0.18859577 0.09558909 0.0137481 -0.07032636 0.113306455 -0.14925341 -0.040595267 0.08818884 -0.04709197 0.0232652 0.049170952 -0.11756347 -0.038150474 -0.05951882 -0.044329517 0.11704033 0.08222549 -0.06510803 0.013348649 0.10783819 0.04203749 0.14222561 0.049021453 -0.14031845 -0.0949857 0.07398426 -0.017132767 -0.054106552 0.04990249 -0.012098692 -0.15443636 0.17399721 -0.04928532 -0.069425546 -0.13288566 0.028104234 0.053775012 0.1810226 0.102028236 0.16763878 -0.04826981 -0.041939348 0.08181405 0.031514335 0.09908714 -0.0237924 0.028851103 -0.06690404 0.0353045 0.0077120885 -0.09697899 -0.13649037 -0.06976519 -0.032833293 0.008550168 -0.083773024 -0.03935029 -0.11743387 0.062277295 0.012648044 -0.052759927 0.055885866 -0.065602615 -0.0068028066 0.13011616 -0.0932268 -0.016686093 0.07812074 -0.017604237 0.088438176 -0.17279574 -0.18086612 0.08149538 -0.017898174 -0.0277337 -5.4865817e-05 -0.024561597
scienc 0.10653261 -0.0036444934 -0.0035499667 0.09837276 0.002066201 0.06857595 -0.10135812 0.011622755 -0.07897905 -0.057950255 -0.046310283 -0.0682774 -0.13897735 0.068465285 0.055559117 0.09021274 -0.09125799 0.011534337 -0.092044845 0.050661877 0.04069292 -0.14296 -0.032901626 0.20275916 0.10775827 0.18734813 -0.002579676 -0.09310308 -0.09798229 0.116167426 0.22379856 0.05628053 -0.2063637 -0.18258591 0.08304165 0.008526712 -0.016886918 -0.026822828 0.10177853 0.21321453 0.11101247 0.043557778 -0.008690208 -0.06916195 -0.14706531 0.14505674 -0.27043986 -0.17245801 -0.117852524 0.010599779 0.010944258 0.06640707 0.1323404 0.05414722 0.10219098 -0.0009771696 0.06412563 0.02197733 -0.04397529 -0.06468994 0.004411767 -0.09233752 -0.041130077 -0.076719075 -0.00967205 0.024665322 -0.17367075 0.0046645054 -0.047419783 0.06536817 -0.032646846 -0.018002853 0.18187417 -0.1282592 -0.21740748 0.06791991 -0.071224175 -0.07128568 -0.09810521 -0.032831635 -0.07157393 0.049953103 -0.10107003 0.06904127 -0.16931032 0.027020711 -0.2045606 -0.0006939706 0.024341859 0.13648799 0.0027319887 0.06807752 -0.25627184 -0.054396186 0.03929408 0.18247196 -0.13685046 -0.10496398 -0.2686251 -0.12202851 0.042083003 0.058747306 -0.014052101 -0.08952123 0.054457676 -0.055411816 0.011474753 -0.015784632 -0.03951567 0.14344451 -0.064604774 0.009425542 0.08057318 0.04179458 -0.117989846 -0.12346567 -0.036345907 -0.033431273 -0.060152307 -0.062820315 -0.0376659 -0.05800771 0.0040759784 -0.15175547 0.18309167 -0.05585032 -0.13253447 0.10846312 -0.05829108 0.14983678 -0.043507095 0.049325053 -0.028411651 0.09017045 -0.034524906 0.0126140425 -0.12127167 -0.0700714 -0.0770482 -0.098321274 0.06302581 0.05701626 -0.16870444 -0.0020125655 0.17652877 -0.04595212 -0.03610248 0.019515617 0.065598086 0.25189692 0.0621714 0.21960597 0.06530691 0.07897451 0.17218146 -0.07425493 0.03216067 -0.08908649 -0.13356654 -0.01394701 -0.08839812 -0.0549661 0.09775782 -0.0020410814 0.08136534 -0.060934663 0.019926563 -0.06453984 0.06752643 -0.07088364 -0.015980551 0.026125843 -0.08737047 0.04580406 -0.14757363 -0.13640575 0.0528895 -0.20695823 0.109002724 -0.026219117 -0.049281992 -0.2894606 -0.16677627 -0.16571577 0.09133555 0.055614144 0.021334061 0.1654369 -0.15355313 -0.08360958 -0.19823225 0.0074939113 -0.18844111 0.13623908 -0.05248585 0.202771 0.080966175 -0.11484596 0.19106689 -0.14483534 -0.024503207 -0.14361182 -0.041491315 -0.007016837 -0.021395806 0.02297958 0.032821476 0.1367317 -0.10773693 -0.052784733 0.08031169 -0.05658556 -0.05076173 -0.14425342 0.23237543 -0.17462638 0.1789502 -0.036250964 0.090759635 -0.1909978 0.11579397 -0.07942765 0.07610265 -0.08692998 0.18658657 0.04946106 -0.09227113 0.11519356 -0.21841937 0.030827176 0.15479688 0.094847076 0.020655865 0.06841277 -0.03964517 -0.0031944602 -0.26469994 -0.22164778 0.09486926 -0.019853195 -0.171438 -0.04986096 -0.17363146 0.09506153 0.012089271 -0.076713145 -0.064763956 -0.29555675 0.14543432 0.016941244 -0.08510315 0.23333596 -0.08660991 -0.11352871 0.02979871 -0.18743414 0.036041122 -0.014022451 0.17873919 0.08431195 -0.11128634 -0.022767343 0.030383527 0.10795423 -0.024325037 -0.12658302 0.24275266 -0.030243771 0.002511099 0.1968227 -0.25739416 0.07257456 0.008116476 -0.026568681 -0.073410645 -0.07144705 -0.17179428 0.09723868 0.09228549 -0.1081742 0.09246569 0.09605675 -0.03418677 0.06839309 -0.018652538 -0.14848499 -0.02270857 -0.041284718 0.021556105 -0.25146928 -0.03065317 -0.024193626 0.015515332 -0.101598635 -0.34063196 -0.17911837 -0.01644573 0.07851743 -0.08079775 0.117283925
design 0.06913394 -0.016373154 0.017033592 0.06821212 -0.0072868825 0.058152143 -0.084260456 0.019697854 -0.042860746 -0.07154518 -0.031455427 -0.018450076 -0.022184847 0.029916052 0.059598915 -0.006719188 -0.052821558 0.018403329 -0.026627414 0.05096053 0.051357944 -0.08149963 0.0024727264 0.11136401 0.032377608 0.15476908 0.03123688 -0.09229251 -0.0757287 0.09449594 0.08900561 0.0007947123 -0.0988905 -0.05534706 0.02788079 0.008974945 -0.014351877 0.0041090003 0.06993127 0.14568245 0.07907061 0.018429467 0.04033524 -0.10297783 -0.07900413 0.11657047 -0.18970509 -0.15965417 -0.039755944 0.00930341 0.022862965 0.04893197 0.09738541 -0.015265676 0.063232005 -0.060003735 0.040620346 0.035929482 -0.008268459 -0.07329938 0.03700791 -0.08909554 -0.075630195 -0.055720083 0.025722818 0.06670923 -0.08391834 0.01580171 -0.037706688 0.037761223 0.0096573355 -0.028306939 0.13310763 -0.065978214 -0.1710865 0.04477451 -0.0038256964 -0.03498307 -0.048838954 -0.07360463 -0.07357225 -0.011375865 -0.058565572 0.023093313 -0.13234319 -0.0071484484 -0.18335488 0.054982882 0.03856708 0.08492097 0.004016807 0.048249852 -0.15451688 -0.02857454 -0.029790573 0.13351698 -0.111015685 -0.10859808 -0.18229233 -0.08109421 0.048023354 0.068522476 -0.04721809 -0.030345395 0.042764183 -0.018377848 0.016540503 -0.050663058 -0.023981584 0.07681609 0.0070293294 0.0038679102 0.037257444 0.014700253 -0.05592249 -0.06733566 -0.061419584 -0.022268679 -0.06608983 -0.047869258 -0.07569965 -0.032490958 -0.03943381 -0.10021812 0.1438525 -0.0018807505 -0.08485238 0.06758677 -0.030146237 0.112674795 -0.036428936 -0.014928522 -0.013349076 0.047712754 -0.04205775 0.025534084 -0.047516357 -0.059562545 -0.03585062 -0.073786356 0.07677981 0.023543369 -0.088962585 0.090149045 0.077092126 -0.019334938 -0.05098563 -0.016804788 -0.019027736 0.16315241 0.075802684 0.09754621 0.028435027 0.025974074 0.11086995 -0.09129946 0.024866965 -0.009827937 -0.09638478 0.018348577 -0.06495845 -0.021508558 0.018297601 -0.0025039816 0.00042340645 -0.033607908 -0.017263526 -0.0315676 0.047004227 -0.05334098 -0.021121783 0.0069172517 -0.018568894 0.019116955 -0.09551126 -0.110395625 -0.016483039 -0.11943253 0.09536136 0.02642369 -0.059854377 -0.17070107 -0.12689453 -0.113866165 0.10242989 0.014576935 0.032051682 0.053012792 -0.12103375 -0.11876467 -0.11569457 -0.03616038 -0.15533648 0.06579516 -0.04588005 0.098394774 0.03904009 -0.062109757 0.08921765 -0.07370552 -0.044847682 -0.09110761 -0.034441948 0.03400592 0.025959771 0.00057821703 0.016380033 0.11052026 -0.11159303 0.020257523 0.08977503 -0.040984202 -0.016142467 -0.1429797 0.15116696 -0.1309097 0.055450603 -0.014356799 0.047520593 -0.12998968 0.112355076 -0.06302979 0.055069502 -0.0012487794 0.1382345 0.029132592 -0.06294596 0.08586447 -0.18326509 0.010141952 0.10714776 0.03267767 0.036136255 0.046845336 -0.055863284 -0.010140091 -0.15323916 -0.12572637 0.08234118 0.01876663 -0.11463767 -0.017757392 -0.06123747 0.06938464 0.055908125 -0.038628906 -0.097029746 -0.18947345 0.09521744 0.016740873 -0.07045963 0.121998 -0.043494593 -0.12740028 0.070721045 -0.11171928 -0.013863666 -0.038206585 0.1151498 0.058694053 -0.018748892 0.021618536 0.056864202 0.037888404 -0.018700434 -0.04570367 0.13976555 0.01446645 -0.01685034 0.12891112 -0.18474407 0.04667698 -0.0012526759 -0.06631736 -0.082720906 -0.051971875 -0.13132985 0.039330676 0.020628067 -0.078296155 0.020026682 0.070152916 -0.02390255 0.032017365 -0.010276744 -0.11169976 -0.019199397 0.002477504 -0.0019176649 -0.16004159 -0.004507273 -0.020972734 0.02322899 -0.1009905 -0.25625032 -0.08058065 -0.010922863 0.04900715 -0.034384895 0.07171287
eua 0.037732735 0.012863829 0.12740268 0.052617963 -0.06945484 0.095384315 -0.19916981 0.09744146 0.00225148 -0.12916827 -0.027582165 0.091814555 0.22991024 -0.03970129 0.13598281 -0.27254105 0.04207072 0.01878686 0.17247406 0.042258404 0.020776892 -0.0036893366 0.14630347 -0.015820013 -0.13684948 0.12410328 0.1420011 -0.1011849 -0.09206517 0.099455565 -0.068840094 -0.2284982 0.08544948 0.19079524 -0.11800258 -0.005774492 -0.06055592 0.20374063 0.07082906 0.049563527 0.03565315 -0.022000555 0.22541806 -0.361771 0.10700882 0.091445856 -0.17145866 -0.18206775 0.19385889 0.06258087 0.026019288 0.02348524 0.08866472 -0.13888566 -0.010174272 -0.2938497 -0.038207542 0.037984412 0.06701837 -0.02916895 0.148446 -0.08289138 -0.31777358 -0.11460548 0.16235362 0.37953883 0.15173647 0.017160106 -0.060366806 -0.11188408 0.12424968 -0.052355886 0.11392034 0.09629812 -0.16533531 0.049160115 0.16366912 -0.044110034 0.009299874 -0.13073675 -0.17955 -0.2141512 -0.052563585 0.008457141 -0.14940788 -0.17183748 -0.35254034 0.23685333 0.16933553 0.03604262 -0.047202747 0.028217817 0.085934974 0.009061999 -0.23218377 0.117283836 -0.029769385 -0.17741436 -0.10816893 -0.035670325 0.14496861 0.24043031 -0.1340891 0.09140088 0.039154284 0.21465959 0.07005671 -0.14374705 -0.04584659 -0.1045439 0.20723766 0.033749565 -0.019462312 0.0986737 -0.083916016 -0.04393888 -0.17777422 -0.09285817 -0.15891214 0.0138806775 -0.26837394 -0.06470756 -0.19164483 -0.052357312 0.019591825 0.18468264 -0.07354182 0.10090029 0.033841133 0.02313657 -0.07768825 -0.2083114 -0.046856053 0.11543507 -0.034522463 0.07507831 0.17734556 0.07982752 0.037224885 -0.10231232 0.25590003 -0.054489892 0.040555075 0.33950275 -0.13646248 -0.029792782 -0.0987174 -0.2054989 -0.21234503 -0.018171646 0.14083046 -0.37118375 0.10537479 -0.01334365 -0.058766104 -0.16980644 -0.018135464 0.2145392 -0.03060426 0.066725396 0.041985486 0.12219278 -0.10729023 0.03497881 -0.10946823 -0.05180314 -0.16018386 -0.024997644 -0.016032422 -0.16971129 -0.018541185 0.07713277 0.09996492 -0.10007409 -0.095760785 -0.23547146 -0.18840979 -0.025463512 0.111339636 0.21300697 -0.0796046 0.011853251 -0.15021595 -0.022525424 0.17452158 -0.06864939 0.04946901 -0.23577043 -0.0853186 -0.31925222 0.079116315 -0.24811092 -0.17884177 -0.05764956 -0.010190684 -0.16572118 -0.04541919 -0.073600866 -0.13210621 0.13100208 -0.15390228 -0.112244606 -0.09154971 0.09190272 0.14049946 -0.02398209 0.024364626 0.07179081 -0.27710915 0.16477817 -0.0010071641 -0.11323821 0.098910145 -0.3170285 0.02301291 -0.14860183 -0.23438424 0.10646229 -0.15628602 -0.07397378 0.02594633 -0.025276003 0.0002943904 0.28427595 0.09169362 0.008810477 -0.09567947 0.03880929 -0.35835883 -0.012853545 0.04705587 -0.11345631 0.009697128 -0.028570453 -0.11909015 -0.050617334 0.0037475608 0.1350675 0.109127484 0.23382162 -0.08247072 0.038903836 0.16178465 0.10966706 0.32593042 -0.0065508857 -0.21753009 -0.07338241 -0.02035415 0.037420426 -0.15043238 -0.04893301 0.01954761 -0.16975528 0.17756978 -0.015422334 -0.17697573 -0.12118514 0.10192872 -0.0735685 0.25199568 0.1545667 0.04792825 -0.14726125 -0.04548877 0.2345989 -0.097257234 0.046525516 -0.12734988 0.14371575 -0.111235805 0.022178506 -0.12667577 -0.2190822 -0.20148867 0.048127733 -0.17501517 -0.12929323 -0.11994762 -0.1883494 -0.21952038 -0.010407748 -0.07476636 -0.06641874 -0.04223166 -0.1685371 -0.052631363 0.039176546 -0.053481415 -0.08487253 0.13177589 -0.07680193 0.033209614 -0.18131973 -0.16648054 0.09947157 0.027886376 -0.037621364 0.085352734 0.04381559
startup 0.06554496 -0.0152283395 0.018173687 0.068377055 -0.022513587 0.07107057 -0.075152844 0.03779013 -0.033391688 -0.08840516 -0.032231085 -0.012923587 -0.018634595 0.02366224 0.0629965 -0.017567107 -0.071481116 0.012078446 -0.015242602 0.084429696 0.07179167 -0.0924587 0.013382226 0.090852 0.029849313 0.16082598 0.039371092 -0.09423822 -0.0645735 0.11594509 0.05160848 0.0014724314 -0.09102344 -0.03079933 0.023345 -0.006758093 -0.03175597 -0.0016223319 0.058100533 0.1412957 0.09007012 0.0133756 0.041639853 -0.09518696 -0.08379482 0.12207377 -0.20086294 -0.17702658 -0.028480195 0.016757956 0.025678871 0.05010372 0.087308794 -0.041122295 0.053952053 -0.0885925 0.038425677 0.04323767 -0.02224333 -0.104794934 0.051706813 -0.081586935 -0.08059676 -0.044509817 0.026809286 0.09199773 -0.08116895 0.022146765 -0.052397314 0.055572856 0.0045575155 -0.020609545 0.13317612 -0.067126036 -0.18448652 0.034973517 0.0014685339 -0.021349061 -0.054390844 -0.10614136 -0.0782923 -0.03086199 -0.043865245 0.033191875 -0.1280404 -0.0004079181 -0.19118911 0.06724423 0.032863542 0.07955952 0.015866669 0.06446145 -0.14967637 -0.022077523 -0.05824275 0.12925848 -0.13399738 -0.11012373 -0.17286001 -0.09602313 0.049676344 0.06134657 -0.04439234 -0.028182141 0.03130259 -0.025638888 0.021161828 -0.065578826 -0.023565328 0.08113987 0.0089779645 0.0023551958 0.034436505 -0.0006219738 -0.033145033 -0.05728547 -0.075748295 -0.041032642 -0.06594893 -0.037203472 -0.0905888 -0.045102794 -0.05510453 -0.1041748 0.15612577 -0.0040603587 -0.07303163 0.04081545 -0.036834203 0.094620064 -0.034167174 -0.031789925 -0.019273361 0.031618875 -0.0677098 0.028413422 -0.04645735 -0.07616297 -0.046673555 -0.072849624 0.092293665 0.0212054 -0.06964018 0.14476636 0.092124276 -0.032102007 -0.04196084 -0.01942752 -0.0552984 0.1792269 0.06812929 0.11250759 0.021694832 0.009961905 0.10927306 -0.09975042 0.027129352 -0.0011064411 -0.09317906 0.009672072 -0.067470655 -0.011356642 0.006211749 -0.018947046 -0.012944819 -0.034918714 -0.02114189 -0.033377707 0.05896942 -0.058822785 -0.020732969 0.0021366507 -0.00699685 0.006883187 -0.086640015 -0.10155109 -0.048247535 -0.110335104 0.11337204 0.023306346 -0.074833944 -0.1672138 -0.112878226 -0.11127346 0.1166892 0.011869036 0.02633641 0.059978843 -0.12415765 -0.14336477 -0.1206015 -0.05307528 -0.1750792 0.06430632 -0.046702407 0.09269257 0.018767262 -0.054177865 0.08459597 -0.068470135 -0.057773218 -0.097057976 -0.038169973 0.040305004 0.038749807 -0.011173034 0.007877748 0.121912725 -0.11921098 0.03947211 0.10398964 -0.03699052 -0.022303654 -0.15545227 0.16150703 -0.14462511 0.023037953 -0.014094373 0.059905186 -0.13197517 0.1325305 -0.07264076 0.061801277 -0.008681158 0.15372717 0.0028759162 -0.0565748 0.10550161 -0.18999097 0.010086373 0.12041542 0.033194352 0.034527104 0.06112859 -0.06943715 -0.030440621 -0.1447115 -0.12556277 0.06633691 0.0190884 -0.11139483 -0.024332525 -0.05042814 0.0694554 0.054683164 -0.042004067 -0.09632532 -0.20083278 0.09905789 0.02151555 -0.07804535 0.122977965 -0.059855487 -0.15281129 0.08121393 -0.11628017 -0.022945136 -0.047964 0.10812729 0.04548075 0.0034698234 0.028468333 0.072972916 0.035516426 -0.019441167 -0.041634995 0.12472711 0.023496026 -0.024996618 0.10809379 -0.17771858 0.045321617 0.011081597 -0.07950334 -0.07624199 -0.04649603 -0.1192278 0.04424491 0.0013070294 -0.08381995 0.026401822 0.07181368 -0.01927171 0.03129725 -0.011613762 -0.11219179 -0.021930795 0.0072808573 0.0037780197 -0.15749787 -0.0020885956 -0.005682883 0.040871702 -0.10669871 -0.25949463 -0.07767152 -0.019223267 0.047939546 -0.01700497 0.04955446
mercado 0.07472487 -0.020393817 0.022251979 0.013592624 0.005842954 -0.012522307 -0.11086305 0.058215886 -0.01335922 -0.10421286 -0.009673348 0.14656264 0.22966999 -0.027285818 0.12014292 -0.10949952 0.1168956 0.08647954 -0.0289928 0.0032205558 -0.007682637 0.026334219 0.13055651 0.012963211 -0.17660983 0.06501538 0.15745108 -0.21024366 -0.0940177 0.19278346 -0.12873596 -0.16615847 0.073022306 0.11317341 -0.09782845 0.07814528 0.038740415 0.10789605 0.039907467 0.10377425 0.08109012 -0.058734044 0.22711939 -0.23624022 -0.0034645349 0.06900769 -0.17091703 -0.20438612 0.1541343 -0.007037573 0.06615772 0.048266865 0.14134237 -0.13336031 0.07399157 -0.19720833 0.048649903 0.08531257 0.0091397995 -0.11234724 0.1013543 -0.16294993 -0.15644228 -0.0714913 0.2251404 0.14075305 0.113688506 0.07449847 -0.014474392 -0.04321192 0.21906613 -0.11870181 0.109111056 0.08787844 -0.11061059 0.015695263 0.110732615 -0.02203264 0.08270516 -0.09269227 -0.069811665 -0.111397944 -0.007828126 -0.10673962 -0.12919854 -0.048945885 -0.21373092 0.15964156 0.14137834 0.10944942 -0.028196367 0.039579596 -0.026538683 -0.037428003 -0.049417593 0.19810249 -4.3992535e-05 -0.075547256 -0.19240953 -0.03723641 0.0509903 0.15415837 -0.105834596 0.14094433 -0.019714778 0.025308378 0.03860971 -0.10494707 0.0072004483 0.0047429334 0.21187912 0.09511295 -0.024577145 0.021532293 -0.017365735 -0.031226696 -0.08769179 -0.10938793 -0.25817195 -0.10245847 -0.11604827 0.01762748 -0.10249228 -0.059315577 0.15479067 0.0886168 -0.030265328 0.07052618 0.061621625 0.18909882 -0.022406243 -0.19583766 0.12248908 0.02347032 -0.10224293 0.11699429 0.10642298 -0.09474355 0.05519339 -0.07689332 0.19471335 -0.07303147 0.08886934 0.37124935 -0.10837948 0.03290965 -0.11398799 -0.1808991 -0.21508525 0.04269508 0.16958043 -0.18716258 -0.025899658 -0.06327261 0.080744006 -0.16688253 0.021330483 0.17468563 -0.07794468 0.17869006 0.047797162 0.07112512 -0.13363421 0.02081785 -0.146105 0.0863614 -0.2195974 0.09637049 0.09530985 -0.0557216 -0.124260485 -0.0729541 0.13143322 0.037904363 0.045185048 -0.15509975 -0.047908396 -0.09969754 0.087517366 0.15706639 -0.115880504 0.08289848 -0.2083045 -0.091504574 0.24182498 -0.16189149 0.059210572 -0.16704449 -0.15564291 -0.121940255 -0.021131823 -0.11244491 -0.17187457 -0.016877236 -0.135738 -0.088326156 -0.10160913 -0.09981353 -0.0026124287 0.12298453 -0.1162056 -0.10754471 -0.0070578395 0.1480123 0.15289447 0.015280455 0.005308201 0.12583667 -0.13895926 0.10474048 0.117667414 -0.020148367 0.07173615 -0.27813354 0.02478467 -0.13459137 -0.18290655 -0.005950799 0.014579321 0.012404099 0.19469748 -0.075421445 0.041738857 0.31071585 0.05350829 0.029726272 -0.10341206 0.08965212 -0.154389 -0.056839723 0.09229059 -0.04862625 0.014184784 0.055651233 -0.12171101 -0.020821756 -0.06300336 -0.04497782 0.13561891 0.10509823 -0.06988067 0.01181952 0.17216069 0.07208817 0.18566771 0.07235132 -0.18379846 -0.08825787 0.044244062 -0.025415467 -0.08250805 0.014849592 0.0021670803 -0.14686377 0.18638575 -0.035811227 -0.07739093 -0.16611683 0.05617348 0.043566603 0.24378636 0.13520068 0.19149831 -0.06353786 -0.03151746 0.15514767 -0.025107922 0.088169836 -0.01568313 0.07734616 -0.051315155 0.015416211 -0.040631592 -0.13230933 -0.15762347 -0.048158523 -0.016866397 -0.0014396338 -0.09858254 -0.051459182 -0.1949421 0.024225118 0.005625442 -0.09330278 0.045495864 -0.062405873 0.011127729 0.12438893 -0.13942182 0.022402773 0.13071983 -0.025443446 0.0883412 -0.2214759 -0.16231775 0.111815676 0.0004421428 -0.05488586 0.0007137479 -0.04031974
alta 0.05840747 0.014431667 0.13807467 0.07208784 -0.08198253 0.09719231 -0.19730413 0.10032373 -0.0062656533 -0.14150359 -0.020822871 0.07016887 0.21275629 -0.036539134 0.14019638 -0.2878438 0.043676723 0.015406372 0.17440675 0.036080692 0.024650482 -0.013872174 0.14529453 -0.0041619698 -0.12721398 0.14067174 0.1263802 -0.0912847 -0.098318204 0.09623747 -0.045987103 -0.24518265 0.0805864 0.17106771 -0.10588738 -0.016494198 -0.07968799 0.21224073 0.08152856 0.053932313 0.03163962 -0.011445425 0.20576164 -0.37649238 0.107093625 0.08730809 -0.19189698 -0.17048286 0.19468147 0.08422133 0.025207547 0.02656448 0.089680016 -0.12043887 -0.009407143 -0.2868226 -0.044364017 0.039444193 0.066250995 -0.02108979 0.14403749 -0.07426674 -0.32328853 -0.1184859 0.16938917 0.38866448 0.1523551 0.020259684 -0.053786185 -0.11829857 0.10771196 -0.03478965 0.11268038 0.085269645 -0.18481512 0.051372956 0.16081233 -0.050729685 0.0077659334 -0.12999076 -0.1787733 -0.20977497 -0.05293774 0.0109735625 -0.13976306 -0.18102804 -0.36671442 0.2420441 0.17324457 0.031946078 -0.047720104 0.016964076 0.093555704 -0.0020897712 -0.24271499 0.1154939 -0.031834766 -0.18284132 -0.11223452 -0.03675483 0.14748807 0.23882101 -0.12743169 0.083279364 0.04958893 0.23801425 0.0696232 -0.130665 -0.048131477 -0.1192328 0.20441172 0.034111764 -0.003935686 0.106389225 -0.089483485 -0.061924122 -0.18201847 -0.093987145 -0.145115 0.015795823 -0.28560337 -0.064128526 -0.19959827 -0.06395476 0.021617593 0.18333727 -0.08339947 0.12495291 0.039160542 0.02291314 -0.08814821 -0.19094482 -0.061361004 0.121957906 -0.017909696 0.06280636 0.17987445 0.08477311 0.03174439 -0.11897686 0.26915017 -0.050422505 0.025968857 0.34399566 -0.13091531 -0.04801324 -0.102492794 -0.20476732 -0.2074023 -0.00896844 0.1410967 -0.3920957 0.12126236 -0.010563396 -0.0816074 -0.16230226 -0.015242037 0.19855765 -0.025430327 0.051142074 0.0508351 0.10764274 -0.09403517 0.01686604 -0.11088965 -0.082068376 -0.14705786 -0.039690863 -0.031848658 -0.18949173 -0.018579843 0.08887058 0.095192164 -0.10740956 -0.100139186 -0.24348716 -0.19133599 -0.023824153 0.116928905 0.21310407 -0.07584431 -0.0067561115 -0.15116866 -0.0038278257 0.15676706 -0.06482505 0.042628624 -0.2403187 -0.07660141 -0.3280351 0.076186426 -0.2674558 -0.16859734 -0.06681571 -0.010453277 -0.16153093 -0.044007238 -0.08585961 -0.12928714 0.124786675 -0.16414772 -0.11201998 -0.09713517 0.081616595 0.13661979 -0.023920609 0.030121986 0.06756541 -0.27987343 0.15674229 -0.021842858 -0.11290721 0.10923004 -0.3081659 0.019720169 -0.15946895 -0.21836348 0.1119198 -0.16183598 -0.07217134 0.012771861 -0.026636546 -0.0062004467 0.2908263 0.086531274 0.0007382821 -0.09556226 0.027046077 -0.36773208 -0.014130571 0.05401725 -0.114421315 -0.002745033 -0.022757135 -0.11681631 -0.047773734 -0.010096737 0.15652525 0.10546808 0.24004899 -0.10039246 0.03856434 0.15591635 0.11769246 0.32578167 -0.008492745 -0.22552648 -0.08450693 -0.037143894 0.04879248 -0.15510498 -0.05773899 0.02534064 -0.16904351 0.16970181 -0.012307851 -0.17745338 -0.117484234 0.10303487 -0.09574975 0.24155529 0.16525015 0.020309938 -0.13762861 -0.038155057 0.23312388 -0.10315486 0.031312797 -0.13555938 0.15932098 -0.12922789 0.022967566 -0.13485004 -0.23821194 -0.20396695 0.07114814 -0.20876148 -0.13281164 -0.11842144 -0.20916176 -0.21691354 -0.02684187 -0.0875275 -0.050844945 -0.054091133 -0.18646303 -0.057665136 0.014512359 -0.043146163 -0.09114913 0.139269 -0.07904977 0.025573008 -0.17427702 -0.18248765 0.091953956 0.01684301 -0.0457284 0.08706797 0.055022545
tecnologia 0.04948065 -0.036863197 0.0044278097 0.008336655 -0.016943514 0.039289877 -0.089486375 0.066399515 0.018081186 -0.11420117 0.029321173 0.08783022 0.10438623 -0.024964955 0.0619351 -0.087608956 0.017485073 0.049283076 0.012035765 0.10514458 0.07050349 -0.040829666 0.021513345 0.0005098286 -0.061392937 0.097260036 0.10698329 -0.15550528 -0.06168752 0.117386244 -0.09025918 -0.080100134 0.01545288 0.079670854 -0.054587547 0.009399101 0.010738627 0.08190425 0.032913044 0.11194633 0.062567234 -0.062718235 0.11276725 -0.18377073 -0.012168778 0.057352193 -0.121644445 -0.19451159 0.053492706 0.0040695365 0.017279299 0.06928655 0.1086259 -0.13839076 0.030892156 -0.19362293 0.040906884 0.046883512 0.014117423 -0.14058025 0.05630808 -0.14556769 -0.114044525 -0.068359174 0.11157863 0.13386461 0.030310582 0.07887594 -0.045302697 0.037771057 0.104166955 -0.039964955 0.09480551 0.007844298 -0.14585209 0.011937558 0.09166475 0.019659849 0.025430882 -0.094725184 -0.08066057 -0.09412835 -0.0079935575 -0.027907552 -0.13501179 -0.033735957 -0.18544444 0.1328513 0.05641481 0.07074939 0.041265167 0.011434747 -0.06596891 0.02058483 -0.12156282 0.13344176 -0.10971258 -0.11382893 -0.13895865 -0.06874908 0.074368976 0.08881386 -0.07364015 0.06519508 0.01729818 0.008081472 0.050133873 -0.11427489 0.0037343963 0.033371855 0.122788616 0.01862934 -0.022111569 0.014461681 -0.030822027 -0.00077003695 -0.11257433 -0.049704764 -0.10918855 -0.04134805 -0.13700381 -0.02306758 -0.08599204 -0.0358546 0.19056934 0.019767024 -0.045824196 0.026008816 -0.019596715 0.124338254 -0.048575558 -0.11339813 0.006213596 0.008549238 -0.0788896 0.06475123 0.025541544 -0.08535617 0.009344146 -0.08643004 0.09837588 0.032997783 0.019580428 0.27002856 -0.021217145 0.024236498 -0.107021466 -0.11486208 -0.19857563 0.059318166 0.13234742 -0.021801153 -0.04351006 -0.040114883 0.07497818 -0.16633761 0.025038904 0.097120866 -0.104394615 0.0415893 -0.07480778 0.07898882 -0.08701542 0.017964913 -0.147443 0.044622757 -0.077451214 0.03080237 0.060752463 -0.047953125 -0.044688333 -0.043327052 0.06590636 0.04353225 -0.027455406 -0.11032656 -0.13139153 -0.027798848 0.13623187 0.10466512 -0.0759796 -0.043937232 -0.11261364 -0.08235232 0.17640354 -0.059219826 0.0487439 -0.05588786 -0.11288945 -0.15425287 -0.056236155 -0.10600406 -0.20709802 -0.017148985 -0.068285696 -0.04844268 -0.036288884 0.023004293 -0.005401041 -0.017277582 -0.0871808 -0.061534755 -0.01918152 0.09675677 0.07457575 -0.061633702 -0.017422415 0.10139594 -0.12322482 0.12812856 0.12899494 -0.0009888542 0.061394203 -0.17442447 0.09398039 -0.12065972 -0.11104715 0.006947795 0.024219604 -0.035344604 0.14305906 -0.054901518 0.03710044 0.13664332 0.11076816 -0.0184431 -0.05499581 0.117920294 -0.18938962 -0.04066361 0.06892617 -0.056050137 0.012560465 0.058614004 -0.075547226 -0.038078282 -0.06549455 -0.00304032 0.0964649 0.070101134 -0.10490292 -0.0031413883 0.06711703 0.03314696 0.14067796 0.0077109598 -0.14106134 -0.12562005 0.025683261 0.003177433 -0.061338887 0.047404483 0.012170858 -0.18788113 0.1414963 -0.070593454 -0.082183406 -0.13498275 0.043210346 0.016266223 0.13630651 0.09542593 0.13595605 -0.06800049 -0.048189178 0.05599892 0.0608219 0.074454926 -0.062442396 0.049410407 -0.09815867 0.052877195 -0.023832386 -0.12694971 -0.13550046 -0.01764447 -0.072130874 0.009299495 -0.084234275 -0.07588326 -0.07331137 0.070229836 -0.015568836 -0.02555215 0.045185383 -0.07308875 -0.00046056256 0.11291942 -0.04152418 -0.025125446 0.02606689 -0.0151080545 0.063460685 -0.18818414 -0.21183555 0.033410013 -0.013319538 -0.020377362 0.022903113 -0.041606676
banco 0.097159624 -0.070484936 -0.09083628 -0.095485285 0.033080567 -0.0025349406 -0.0906573 0.055114422 -0.012099552 -0.039884046 -0.024375368 0.1988427 0.21289243 0.00093575206 0.11438321 -0.04989736 0.09788438 0.11210322 -0.14088066 0.09450632 0.013919735 0.009717678 0.08844447 0.026009016 -0.14582928 0.042138018 0.11015865 -0.22632578 -0.106887445 0.18037832 -0.13475221 -0.0878487 0.042196997 0.10647062 -0.12610051 0.13248241 0.052334245 0.07182954 0.031822298 0.15423734 0.048024956 -0.11439411 0.23107523 -0.19070648 -0.039901204 0.037103135 -0.13204469 -0.26345286 0.063744076 -0.0513735 0.056012016 0.12147266 0.15670554 -0.18821472 0.11120096 -0.23749302 0.10566422 0.14689313 0.041542333 -0.14648037 0.056946117 -0.16793463 -0.112748235 -0.113781765 0.2644198 0.07045206 0.058990277 0.10905535 0.0011610597 0.017076682 0.22047518 -0.16512774 0.083541505 0.042009648 -0.07131417 0.0033713295 0.079697415 -0.019348657 0.084256105 -0.07316104 -0.014750595 -0.1130659 0.019717762 -0.119321726 -0.17185533 0.013349929 -0.19010894 0.10436776 0.14518832 0.14501184 0.014728199 -0.005765779 -0.048600752 0.015286698 0.0026465817 0.18836957 -0.052219376 -0.0836413 -0.19010115 -0.09115985 0.031893037 0.102978975 -0.09556803 0.16029724 -0.036076814 -0.062342234 0.0750188 -0.10895112 -0.012438751 0.058655016 0.16161902 0.10692667 -0.08671434 -0.00062285387 -0.07070498 -0.040727954 -0.03815908 -0.0856125 -0.22261254 -0.08521149 -0.06678539 0.05380029 -0.11275633 0.017578734 0.2417025 0.019381754 -0.017478265 0.08978818 -0.020820806 0.24295712 -0.026410893 -0.17545629 0.17296672 0.023922704 -0.10625136 0.1109824 0.011328062 -0.14834537 0.06764921 -0.07932896 0.12315207 -0.039024714 0.0926822 0.36540836 -0.01991716 0.09722592 -0.10108472 -0.18739061 -0.20763998 0.037331715 0.20636949 -0.06910836 -0.11273821 -0.09494385 0.11930882 -0.18874077 0.030529004 0.14774399 -0.10583642 0.19755574 -0.089008965 0.08735142 -0.07771088 0.05270689 -0.12729833 0.11139551 -0.14749627 0.13751958 0.13943858 0.023305282 -0.12658851 -0.09231707 0.15451145 0.13728735 0.06409568 -0.08714955 -0.06456629 -0.1053488 0.08751742 0.08539481 -0.1242996 0.0020533334 -0.21515907 -0.16502538 0.28291097 -0.17735004 0.116125226 -0.051738318 -0.16001815 -0.03918724 -0.026346661 -0.07997039 -0.1610256 -0.021417383 -0.17858525 -0.08732421 -0.093519635 -0.015818045 0.047994446 0.05072385 -0.10138436 -0.074216984 0.024840297 0.12485034 0.10594378 -0.015973153 0.055361476 0.20180793 -0.10485447 0.12354554 0.15789665 0.010471257 0.09005923 -0.3009319 0.14589801 -0.13145818 -0.08088193 -0.03450084 0.12741493 0.04516112 0.2420694 -0.05457293 0.07847126 0.29368764 0.0877628 0.048153285 -0.09290587 0.14859413 -0.13369897 -0.07547298 0.06654822 -0.011803604 -0.018825172 0.047617435 -0.09940191 -0.030569565 -0.068792626 -0.07891497 0.20503035 0.07996383 -0.10463666 0.020864153 0.122133255 0.035602063 0.13754438 0.09908752 -0.090238556 -0.11024892 0.06393406 -0.048491236 -0.018208845 0.10221563 -0.0038944825 -0.14268865 0.20729734 -0.05127401 -0.07412968 -0.1931626 0.009645639 0.1032905 0.17077573 0.14960973 0.18436289 -0.058088996 -0.04063973 0.084481366 0.09971043 0.13568996 -0.025939455 -0.0003464838 -0.06918246 0.08130496 0.05316278 -0.07612874 -0.20903115 -0.11053003 -0.016738828 0.05547033 -0.08614096 -0.009068234 -0.13955073 0.08809421 0.0034990443 -0.01797027 0.11320958 -0.029171217 0.0064234436 0.18843845 -0.13005978 0.01886067 0.05347796 -0.03709977 0.1629474 -0.23828347 -0.2196382 0.09756209 -0.03837128 -0.07013768 -0.007230243 -0.05951059
